{"learner":{"attributes":{"scikit_learn":"{\"_estimator_type\": \"classifier\"}"},"feature_names":["encounter_emergency_key","gender","age","ir_id","encounter_id","total_qty","BP_DIASTOLIC","RESPIRATIONS","SP02","TEMPERATURE","Cryo","FFP","Platelets","RBCs","Transfuse_Cryoprecipitate","Transfuse_Emergency_RBC","Transfuse_FFP","Transfuse_Platelet_Pheresis","Transfuse_Plt_Pheresis_Irradiated","Transfuse_RBC","Transfuse_RBC_Autologous","gcs_available"],"feature_types":["int","int","float","float","float","float","float","float","float","float","float","float","float","float","float","float","float","float","float","float","float","int"],"gradient_booster":{"model":{"gbtree_model_param":{"num_parallel_tree":"1","num_trees":"300"},"iteration_indptr":[0,1,2,3,4,5,6,7,8,9,10,11,12,13,14,15,16,17,18,19,20,21,22,23,24,25,26,27,28,29,30,31,32,33,34,35,36,37,38,39,40,41,42,43,44,45,46,47,48,49,50,51,52,53,54,55,56,57,58,59,60,61,62,63,64,65,66,67,68,69,70,71,72,73,74,75,76,77,78,79,80,81,82,83,84,85,86,87,88,89,90,91,92,93,94,95,96,97,98,99,100,101,102,103,104,105,106,107,108,109,110,111,112,113,114,115,116,117,118,119,120,121,122,123,124,125,126,127,128,129,130,131,132,133,134,135,136,137,138,139,140,141,142,143,144,145,146,147,148,149,150,151,152,153,154,155,156,157,158,159,160,161,162,163,164,165,166,167,168,169,170,171,172,173,174,175,176,177,178,179,180,181,182,183,184,185,186,187,188,189,190,191,192,193,194,195,196,197,198,199,200,201,202,203,204,205,206,207,208,209,210,211,212,213,214,215,216,217,218,219,220,221,222,223,224,225,226,227,228,229,230,231,232,233,234,235,236,237,238,239,240,241,242,243,244,245,246,247,248,249,250,251,252,253,254,255,256,257,258,259,260,261,262,263,264,265,266,267,268,269,270,271,272,273,274,275,276,277,278,279,280,281,282,283,284,285,286,287,288,289,290,291,292,293,294,295,296,297,298,299,300],"tree_info":[0,0,0,0,0,0,0,0,0,0,0,0,0,0,0,0,0,0,0,0,0,0,0,0,0,0,0,0,0,0,0,0,0,0,0,0,0,0,0,0,0,0,0,0,0,0,0,0,0,0,0,0,0,0,0,0,0,0,0,0,0,0,0,0,0,0,0,0,0,0,0,0,0,0,0,0,0,0,0,0,0,0,0,0,0,0,0,0,0,0,0,0,0,0,0,0,0,0,0,0,0,0,0,0,0,0,0,0,0,0,0,0,0,0,0,0,0,0,0,0,0,0,0,0,0,0,0,0,0,0,0,0,0,0,0,0,0,0,0,0,0,0,0,0,0,0,0,0,0,0,0,0,0,0,0,0,0,0,0,0,0,0,0,0,0,0,0,0,0,0,0,0,0,0,0,0,0,0,0,0,0,0,0,0,0,0,0,0,0,0,0,0,0,0,0,0,0,0,0,0,0,0,0,0,0,0,0,0,0,0,0,0,0,0,0,0,0,0,0,0,0,0,0,0,0,0,0,0,0,0,0,0,0,0,0,0,0,0,0,0,0,0,0,0,0,0,0,0,0,0,0,0,0,0,0,0,0,0,0,0,0,0,0,0,0,0,0,0,0,0,0,0,0,0,0,0,0,0,0,0,0,0,0,0,0,0,0,0,0,0,0,0,0,0,0,0,0,0,0,0],"trees":[{"base_weights":[3.6369514E-2,-3.795755E-1,1.3410506E0,-9.009407E-2,-1.0705633E0,-1.5737795E0,1.4240936E0,-5.1023346E-1,2.5643194E-1,-1.1658698E0,5.0225693E-1,-9.8029554E-2,-9.382868E-2,1.4894067E0,-5.622716E-1,-2.1790756E-2,-7.545135E-2,-3.8067203E-3,4.09942E-2,-4.6547852E-2,-8.2449876E-2,-9.5061734E-2,4.8510615E-2,6.905106E-2,-8.62069E-2,6.526931E-2,9.423081E-2,-5.475713E-2,7.953007E-2],"categories":[],"categories_nodes":[],"categories_segments":[],"categories_sizes":[],"default_left":[1,1,0,1,0,0,1,1,0,0,0,0,0,0,0,0,0,0,0,0,0,0,0,0,0,0,0,0,0],"id":0,"left_children":[1,3,5,7,9,11,13,15,17,19,21,-1,23,25,27,-1,-1,-1,-1,-1,-1,-1,-1,-1,-1,-1,-1,-1,-1],"loss_changes":[5.15441E3,1.4405312E3,5.58021E2,7.392589E2,3.193208E2,3.649817E1,2.905371E2,1.6992676E2,5.215178E2,2.2603345E2,1.3926804E2,0E0,3.6831757E1,1.5478906E2,8.412411E1,0E0,0E0,0E0,0E0,0E0,0E0,0E0,0E0,0E0,0E0,0E0,0E0,0E0,0E0],"parents":[2147483647,0,0,1,1,2,2,3,3,4,4,5,5,6,6,7,7,8,8,9,9,10,10,12,12,13,13,14,14],"right_children":[2,4,6,8,10,12,14,16,18,20,22,-1,24,26,28,-1,-1,-1,-1,-1,-1,-1,-1,-1,-1,-1,-1,-1,-1],"split_conditions":[1E0,7.8E1,2.0000047E11,2.2E1,4.7E1,6.045771E6,8E1,9.8E1,1.5350879E7,9E1,1.7643397E9,-9.8029554E-2,8.26635E7,1.4E1,5E0,-2.1790756E-2,-7.545135E-2,-3.8067203E-3,4.09942E-2,-4.6547852E-2,-8.2449876E-2,-9.5061734E-2,4.8510615E-2,6.905106E-2,-8.62069E-2,6.526931E-2,9.423081E-2,-5.475713E-2,7.953007E-2],"split_indices":[5,2,4,7,7,3,2,6,3,2,0,0,0,5,5,0,0,0,0,0,0,0,0,0,0,0,0,0,0],"split_type":[0,0,0,0,0,0,0,0,0,0,0,0,0,0,0,0,0,0,0,0,0,0,0,0,0,0,0,0,0],"sum_hessian":[9.496204E3,7.201125E3,2.2950793E3,5.075805E3,2.1253198E3,6.307782E1,2.2320015E3,2.2940056E3,2.7817993E3,2.0041361E3,1.2118384E2,4.975E1,1.332782E1,2.1611904E3,7.081128E1,2.1362722E3,1.5773346E2,1.7498501E3,1.0319492E3,1.3504358E3,6.537004E2,1.925E1,1.0193384E2,7.07782E0,6.25E0,1.4775193E3,6.836711E2,5.715564E1,1.365564E1],"tree_param":{"num_deleted":"0","num_feature":"22","num_nodes":"29","size_leaf_vector":"1"}},{"base_weights":[-1.2174914E-2,1.2558392E0,-4.102485E-1,1.3571634E0,-1.1049107E0,-1.3406843E-1,-1.0878896E0,1.3991784E0,-1.1723646E0,-9.405154E-2,-5.5351675E-1,-5.9674096E-1,1.8053804E-1,-8.452334E-1,-1.5833521E0,4.9575E-2,7.893619E-2,-9.172538E-2,3.416719E-2,-6.0020626E-2,2.9743016E-2,5.382219E-2,-3.2297406E-2,-1.6059961E-2,2.6526032E-2,-3.4996558E-2,-9.026127E-2,1.5802424E-2,-8.240864E-2],"categories":[],"categories_nodes":[],"categories_segments":[],"categories_sizes":[],"default_left":[0,1,0,0,0,1,1,0,0,0,0,0,0,1,1,0,0,0,0,0,0,0,0,0,0,0,0,0,0],"id":1,"left_children":[1,3,5,7,9,11,13,15,17,-1,19,21,23,25,27,-1,-1,-1,-1,-1,-1,-1,-1,-1,-1,-1,-1,-1,-1],"loss_changes":[4.7135225E3,5.35187E2,1.3299253E3,2.2904932E2,3.8488785E1,7.3522253E2,2.4605127E2,1.5253223E2,4.4879368E1,0E0,4.188513E1,1.690116E2,5.28183E2,1.9170093E2,8.366626E1,0E0,0E0,0E0,0E0,0E0,0E0,0E0,0E0,0E0,0E0,0E0,0E0,0E0,0E0],"parents":[2147483647,0,0,1,1,2,2,3,3,4,4,5,5,6,6,7,7,8,8,10,10,11,11,12,12,13,13,14,14],"right_children":[2,4,6,8,10,12,14,16,18,-1,20,22,24,26,28,-1,-1,-1,-1,-1,-1,-1,-1,-1,-1,-1,-1,-1,-1],"split_conditions":[1E0,8E1,8.1E1,1E0,1E0,2.2E1,9E1,4E0,6.045771E6,-9.405154E-2,6.024842E6,8.210324E7,2.5555876E9,9.6E1,9E0,4.9575E-2,7.893619E-2,-9.172538E-2,3.416719E-2,-6.0020626E-2,2.9743016E-2,5.382219E-2,-3.2297406E-2,-1.6059961E-2,2.6526032E-2,-3.4996558E-2,-9.026127E-2,1.5802424E-2,-8.240864E-2],"split_indices":[18,2,2,21,1,7,2,5,3,0,3,0,0,6,7,0,0,0,0,0,0,0,0,0,0,0,0,0,0],"split_type":[0,0,0,0,0,0,0,0,0,0,0,0,0,0,0,0,0,0,0,0,0,0,0,0,0,0,0,0,0],"sum_hessian":[9.33607E3,2.2301257E3,7.1059443E3,2.138755E3,9.137092E1,5.0492607E3,2.0566838E3,2.1042505E3,3.450435E1,3.695007E1,5.4420845E1,2.0433435E3,3.0059172E3,1.3823665E3,6.743174E2,6.453752E2,1.4588752E3,2.5438835E1,9.065512E0,3.478224E1,1.9638603E1,5.778005E1,1.9855635E3,1.2352036E3,1.7707135E3,1.2021421E3,1.8022443E2,2.212505E1,6.521923E2],"tree_param":{"num_deleted":"0","num_feature":"22","num_nodes":"29","size_leaf_vector":"1"}},{"base_weights":[-2.2651035E-2,-4.126318E-1,1.2077068E0,-1.7068213E-1,-1.1887141E0,1.2972285E0,-8.166875E-1,-5.595676E-1,1.4711659E-1,-9.4071394E-1,-1.6685094E0,9.627143E-1,1.5989121E0,1.417187E0,-1.2360363E0,5.1018186E-2,-3.307552E-2,-1.0682874E-2,3.5543017E-2,-7.206461E-2,-3.0459005E-2,7.253274E-2,-8.55312E-2,8.058249E-2,3.6168814E-2,7.263849E-2,8.6187676E-2,-5.9240438E-2,9.17811E-2,-9.201632E-2,-8.504116E-3],"categories":[],"categories_nodes":[],"categories_segments":[],"categories_sizes":[],"default_left":[1,1,1,1,0,0,0,0,0,0,0,0,0,0,0,0,0,0,0,0,0,0,0,0,0,0,0,0,0,0,0],"id":2,"left_children":[1,3,5,7,9,11,13,15,17,19,21,23,25,27,29,-1,-1,-1,-1,-1,-1,-1,-1,-1,-1,-1,-1,-1,-1,-1,-1],"loss_changes":[4.417691E3,1.3125304E3,4.0264917E2,6.5889044E2,1.9611426E2,2.1265698E2,9.023564E1,3.868147E2,5.9693396E2,1.812674E2,7.667822E1,1.5554596E2,1.7829102E1,1.8936308E1,5.1258057E1,0E0,0E0,0E0,0E0,0E0,0E0,0E0,0E0,0E0,0E0,0E0,0E0,0E0,0E0,0E0,0E0],"parents":[2147483647,0,0,1,1,2,2,3,3,4,4,5,5,6,6,7,7,8,8,9,9,10,10,11,11,12,12,13,13,14,14],"right_children":[2,4,6,8,10,12,14,16,18,20,22,24,26,28,30,-1,-1,-1,-1,-1,-1,-1,-1,-1,-1,-1,-1,-1,-1,-1,-1],"split_conditions":[1E0,8.1E1,8E1,2.2E1,9.1E1,5E0,9.78E1,9.76E1,1.5189529E7,2.2E1,9.71E1,4.2E1,1.4E1,3E0,9.914E1,5.1018186E-2,-3.307552E-2,-1.0682874E-2,3.5543017E-2,-7.206461E-2,-3.0459005E-2,7.253274E-2,-8.55312E-2,8.058249E-2,3.6168814E-2,7.263849E-2,8.6187676E-2,-5.9240438E-2,9.17811E-2,-9.201632E-2,-8.504116E-3],"split_indices":[5,2,2,7,2,5,9,9,3,7,9,2,5,5,9,0,0,0,0,0,0,0,0,0,0,0,0,0,0,0,0],"split_type":[0,0,0,0,0,0,0,0,0,0,0,0,0,0,0,0,0,0,0,0,0,0,0,0,0,0,0,0,0,0,0],"sum_hessian":[9.205016E3,6.9900703E3,2.2149453E3,5.3297114E3,1.6603589E3,2.121489E3,9.3456154E1,2.3964507E3,2.9332607E3,1.0965345E3,5.6382434E2,1.00799304E3,1.1134961E3,1.4394902E1,7.906126E1,1.4470912E2,2.2517415E3,1.7889946E3,1.144266E3,4.3555255E2,6.60982E2,7.065725E0,5.567586E2,2.7005057E2,7.3794244E2,5.18806E2,5.9469006E2,1.7404658E0,1.2654436E1,4.999347E1,2.9067785E1],"tree_param":{"num_deleted":"0","num_feature":"22","num_nodes":"31","size_leaf_vector":"1"}},{"base_weights":[3.5540394E-3,1.1435356E0,-3.446366E-1,-1.4609869E0,1.2215046E0,-1.0252031E-1,-9.3051785E-1,5.040309E-1,-9.1249146E-2,1.278716E0,-6.636863E-1,-3.3778632E-1,3.4708452E-1,-1.3900857E0,-6.352889E-1,6.976855E-2,-6.875264E-2,4.507931E-2,7.228687E-2,-6.474554E-2,7.8151815E-2,8.264522E-3,-2.5328664E-2,-9.3814746E-2,1.8670062E-2,-2.742586E-2,-7.80884E-2,-1.2623796E-2,-5.7247546E-2],"categories":[],"categories_nodes":[],"categories_segments":[],"categories_sizes":[],"default_left":[0,0,0,0,1,0,0,0,0,0,0,0,0,0,1,0,0,0,0,0,0,0,0,0,0,0,0,0,0],"id":3,"left_children":[1,3,5,7,9,11,13,15,-1,17,19,21,23,25,27,-1,-1,-1,-1,-1,-1,-1,-1,-1,-1,-1,-1,-1,-1],"loss_changes":[3.6979292E3,4.4443164E2,1.0122352E3,4.6561874E1,2.2917041E2,5.3438153E2,2.8223462E2,1.993496E1,0E0,1.2813403E2,9.0589264E1,2.8168057E2,1.0225183E2,1.1694556E2,2.4795312E2,0E0,0E0,0E0,0E0,0E0,0E0,0E0,0E0,0E0,0E0,0E0,0E0,0E0,0E0],"parents":[2147483647,0,0,1,1,2,2,3,3,4,4,5,5,6,6,7,7,9,9,10,10,11,11,12,12,13,13,14,14],"right_children":[2,4,6,8,10,12,14,16,-1,18,20,22,24,26,28,-1,-1,-1,-1,-1,-1,-1,-1,-1,-1,-1,-1,-1,-1],"split_conditions":[1E0,2.0000047E11,8.1E1,9.806E1,8E1,1.5189529E7,2.0009648E11,6.8E1,-9.1249146E-2,4E0,5E0,1.663856E6,9.754061E8,8.232364E7,8.3E1,6.976855E-2,-6.875264E-2,4.507931E-2,7.228687E-2,-6.474554E-2,7.8151815E-2,8.264522E-3,-2.5328664E-2,-9.3814746E-2,1.8670062E-2,-2.742586E-2,-7.80884E-2,-1.2623796E-2,-5.7247546E-2],"split_indices":[18,4,2,9,2,3,4,6,0,5,5,3,0,0,6,0,0,0,0,0,0,0,0,0,0,0,0,0,0],"split_type":[0,0,0,0,0,0,0,0,0,0,0,0,0,0,0,0,0,0,0,0,0,0,0,0,0,0,0,0,0],"sum_hessian":[9.3143125E3,2.178754E3,7.1355586E3,6.2811886E1,2.1159421E3,5.049868E3,2.0856904E3,9.756596E0,5.305529E1,2.0539314E3,6.2010605E1,3.315307E3,1.7345614E3,8.1434E2,1.2713503E3,6.792164E0,2.9644318E0,6.323958E2,1.4215356E3,4.864059E1,1.3370016E1,8.3288324E2,2.4824236E3,1.946839E1,1.715093E3,1.3869025E2,6.756498E2,7.268787E2,5.444716E2],"tree_param":{"num_deleted":"0","num_feature":"22","num_nodes":"29","size_leaf_vector":"1"}},{"base_weights":[5.71361E-4,-3.5279748E-1,1.1161122E0,-5.801177E-2,-9.142215E-1,-1.4142067E0,1.191542E0,-5.678373E-1,2.3781206E-1,-5.431558E-1,-1.2469869E0,3.33593E-1,-8.773252E-2,1.2469877E0,-4.4121644E-1,5.6554582E-2,-3.547732E-2,-8.942867E-3,2.74564E-2,-3.7862193E-2,3.0246222E-2,-6.8016894E-2,-9.857377E-3,-7.046249E-2,6.316395E-2,5.365131E-2,7.9623766E-2,-4.5347374E-2,7.4904315E-2],"categories":[],"categories_nodes":[],"categories_segments":[],"categories_sizes":[],"default_left":[1,0,0,1,1,0,1,1,0,1,1,0,0,0,0,0,0,0,0,0,0,0,0,0,0,0,0,0,0],"id":4,"left_children":[1,3,5,7,9,11,13,15,17,19,21,23,-1,25,27,-1,-1,-1,-1,-1,-1,-1,-1,-1,-1,-1,-1,-1,-1],"loss_changes":[3.654527E3,1.1651602E3,4.2735132E2,6.965593E2,2.9862573E2,3.9272186E1,1.9665625E2,4.0907947E2,3.7923193E2,2.825739E2,1.5171289E2,2.0316265E1,0E0,1.2422412E2,6.628356E1,0E0,0E0,0E0,0E0,0E0,0E0,0E0,0E0,0E0,0E0,0E0,0E0,0E0,0E0],"parents":[2147483647,0,0,1,1,2,2,3,3,4,4,5,5,6,6,7,7,8,8,9,9,10,10,11,11,13,13,14,14],"right_children":[2,4,6,8,10,12,14,16,18,20,22,24,-1,26,28,-1,-1,-1,-1,-1,-1,-1,-1,-1,-1,-1,-1,-1,-1],"split_conditions":[1E0,7.8E1,2.0000047E11,2.1E1,8.3E1,9.806E1,8E1,9.76E1,2.0012551E11,3.2E1,9.98E1,9.8E1,-8.773252E-2,1.3E1,5E0,5.6554582E-2,-3.547732E-2,-8.942867E-3,2.74564E-2,-3.7862193E-2,3.0246222E-2,-6.8016894E-2,-9.857377E-3,-7.046249E-2,6.316395E-2,5.365131E-2,7.9623766E-2,-4.5347374E-2,7.4904315E-2],"split_indices":[5,2,4,7,6,9,2,9,4,7,9,9,0,5,5,0,0,0,0,0,0,0,0,0,0,0,0,0,0],"split_type":[0,0,0,0,0,0,0,0,0,0,0,0,0,0,0,0,0,0,0,0,0,0,0,0,0,0,0,0,0],"sum_hessian":[9.268807E3,7.039572E3,2.229235E3,4.6166304E3,2.4229412E3,6.401692E1,2.165218E3,1.6948282E3,2.9218022E3,1.1467906E3,1.2761505E3,1.0439877E1,5.357704E1,2.0943345E3,7.0883705E1,1.2994582E2,1.5648824E3,1.2496627E3,1.6721396E3,9.668397E2,1.7995085E2,1.1515249E3,1.2462568E2,3.4522524E0,6.987624E0,1.3956808E3,6.986536E2,5.7586433E1,1.329727E1],"tree_param":{"num_deleted":"0","num_feature":"22","num_nodes":"29","size_leaf_vector":"1"}},{"base_weights":[2.271001E-3,-3.2142445E-1,1.0558412E0,-7.8010835E-2,-9.152586E-1,-1.3593996E0,1.128598E0,-4.623977E-1,2.3019907E-1,-7.075627E-1,-1.356311E0,4.6387E-1,-8.447155E-2,6.645789E-1,1.3408333E0,4.0793233E-2,-2.6305526E-2,-3.0521238E-3,3.5815027E-2,-4.5886766E-2,-2.696428E-5,-7.26061E-2,4.6737547E-4,6.54973E-2,-6.551831E-2,4.037339E-2,-5.961426E-2,6.1601847E-2,8.063345E-2],"categories":[],"categories_nodes":[],"categories_segments":[],"categories_sizes":[],"default_left":[1,1,0,1,0,0,0,0,0,1,0,0,0,1,0,0,0,0,0,0,0,0,0,0,0,0,0,0,0],"id":5,"left_children":[1,3,5,7,9,11,13,15,17,19,21,23,-1,25,27,-1,-1,-1,-1,-1,-1,-1,-1,-1,-1,-1,-1,-1,-1],"loss_changes":[3.166665E3,1.026663E3,3.850244E2,5.9709863E2,1.8820398E2,3.945833E1,2.0779663E2,1.8308408E2,3.9607135E2,2.0892413E2,8.637341E1,1.768166E1,0E0,1.7794196E2,4.0986084E1,0E0,0E0,0E0,0E0,0E0,0E0,0E0,0E0,0E0,0E0,0E0,0E0,0E0,0E0],"parents":[2147483647,0,0,1,1,2,2,3,3,4,4,5,5,6,6,7,7,8,8,9,9,10,10,11,11,13,13,14,14],"right_children":[2,4,6,8,10,12,14,16,18,20,22,24,-1,26,28,-1,-1,-1,-1,-1,-1,-1,-1,-1,-1,-1,-1,-1,-1],"split_conditions":[1E0,7.8E1,2.0000047E11,2.2E1,9E1,9.806E1,4E0,9.76E1,1.5350879E7,3.2E1,9.98E1,6.9E1,-8.447155E-2,8E1,2.4E1,4.0793233E-2,-2.6305526E-2,-3.0521238E-3,3.5815027E-2,-4.5886766E-2,-2.696428E-5,-7.26061E-2,4.6737547E-4,6.54973E-2,-6.551831E-2,4.037339E-2,-5.961426E-2,6.1601847E-2,8.063345E-2],"split_indices":[5,2,4,7,2,9,5,9,3,7,9,2,0,2,5,0,0,0,0,0,0,0,0,0,0,0,0,0,0],"split_type":[0,0,0,0,0,0,0,0,0,0,0,0,0,0,0,0,0,0,0,0,0,0,0,0,0,0,0,0,0],"sum_hessian":[9.283436E3,7.102103E3,2.181332E3,5.0381064E3,2.063997E3,6.3271732E1,2.1180603E3,2.2417664E3,2.79634E3,1.4049816E3,6.5901544E2,9.635361E0,5.3636375E1,6.660276E2,1.4520326E3,1.05871704E2,2.1358945E3,1.749202E3,1.047138E3,1.0828047E3,3.2217694E2,6.157525E2,4.3262913E1,6.701375E0,2.9339852E0,6.189625E2,4.706508E1,1.0409478E3,4.1108487E2],"tree_param":{"num_deleted":"0","num_feature":"22","num_nodes":"29","size_leaf_vector":"1"}},{"base_weights":[2.3456223E-2,-3.0759776E-1,1.0558616E0,-1.0237803E-1,-9.8842216E-1,-8.189551E-2,1.1216507E0,-5.977819E-1,7.566649E-2,-1.3330456E0,-6.741058E-1,7.2970235E-1,1.3088787E0,-4.6065148E-2,-1.1132705E-2,4.1119836E-2,-4.2147367E-4,-7.1756385E-2,-1.2651841E-2,-5.5127833E-3,-5.7801712E-2,5.0379287E-2,-5.9135864E-3,5.927181E-2,7.41334E-2],"categories":[],"categories_nodes":[],"categories_segments":[],"categories_sizes":[],"default_left":[1,1,0,1,0,0,0,0,1,0,0,0,0,0,0,0,0,0,0,0,0,0,0,0,0],"id":6,"left_children":[1,3,5,7,9,-1,11,13,15,17,19,21,23,-1,-1,-1,-1,-1,-1,-1,-1,-1,-1,-1,-1],"loss_changes":[3.1571594E3,9.7716565E2,3.9931958E2,4.741964E2,1.7457141E2,0E0,1.597544E2,1.7228705E2,2.48389E2,8.471448E1,2.3063916E2,1.6747113E2,3.0009521E1,0E0,0E0,0E0,0E0,0E0,0E0,0E0,0E0,0E0,0E0,0E0,0E0],"parents":[2147483647,0,0,1,1,2,2,3,3,4,4,6,6,7,7,8,8,9,9,10,10,11,11,12,12],"right_children":[2,4,6,8,10,-1,12,14,16,18,20,22,24,-1,-1,-1,-1,-1,-1,-1,-1,-1,-1,-1,-1],"split_conditions":[1E0,8.1E1,2.0000047E11,2.0003447E11,2.0009648E11,-8.189551E-2,4E0,9.96E1,9.788E1,9.98E1,8.5E1,8E1,1.4E1,-4.6065148E-2,-1.1132705E-2,4.1119836E-2,-4.2147367E-4,-7.1756385E-2,-1.2651841E-2,-5.5127833E-3,-5.7801712E-2,5.0379287E-2,-5.9135864E-3,5.927181E-2,7.41334E-2],"split_indices":[5,2,4,4,4,0,5,9,9,9,6,2,5,0,0,0,0,0,0,0,0,0,0,0,0],"split_type":[0,0,0,0,0,0,0,0,0,0,0,0,0,0,0,0,0,0,0,0,0,0,0,0,0],"sum_hessian":[9.235401E3,6.993536E3,2.2418647E3,5.374623E3,1.6189131E3,5.2877308E1,2.1889875E3,1.4203055E3,3.9543176E3,7.706806E2,8.482325E2,7.0920825E2,1.4797792E3,7.618275E2,6.58478E2,3.9936615E2,3.5549514E3,7.0382635E2,6.6854256E1,3.9145908E2,4.567734E2,5.3402014E2,1.7518808E2,8.697891E2,6.0999005E2],"tree_param":{"num_deleted":"0","num_feature":"22","num_nodes":"25","size_leaf_vector":"1"}},{"base_weights":[2.9524364E-2,-2.1613508E-1,1.2699299E0,-2.3728833E-2,-8.78562E-1,-7.1107745E-2,1.2829335E0,-2.4427281E-1,3.4722415E-1,-1.2272019E0,-5.574806E-1,1.142562E0,1.4616916E0,4.066012E-2,-1.7195787E-2,3.677731E-2,4.693569E-3,-7.6304585E-2,-4.4821944E-2,4.9279066E-4,-5.404928E-2,7.2756596E-2,5.0846357E-2,6.6807956E-2,7.665083E-2],"categories":[],"categories_nodes":[],"categories_segments":[],"categories_sizes":[],"default_left":[1,1,0,1,0,0,0,0,0,0,0,0,0,0,0,0,0,0,0,0,0,0,0,0,0],"id":7,"left_children":[1,3,5,7,9,-1,11,13,15,17,19,21,23,-1,-1,-1,-1,-1,-1,-1,-1,-1,-1,-1,-1],"loss_changes":[2.826678E3,9.868673E2,5.5506104E1,4.9105588E2,1.9440552E2,0E0,3.6636963E1,3.9691608E2,2.2011322E2,8.115161E1,2.700099E2,3.2280518E1,3.9317627E0,0E0,0E0,0E0,0E0,0E0,0E0,0E0,0E0,0E0,0E0,0E0,0E0],"parents":[2147483647,0,0,1,1,2,2,3,3,4,4,6,6,7,7,8,8,9,9,10,10,11,11,12,12],"right_children":[2,4,6,8,10,-1,12,14,16,18,20,22,24,-1,-1,-1,-1,-1,-1,-1,-1,-1,-1,-1,-1],"split_conditions":[4E0,8.1E1,1.923894E8,6.452409E6,2.0009648E11,-7.1107745E-2,1.4E1,9.788E1,4.4E1,5.168683E6,8.5E1,4E1,2.4E1,4.066012E-2,-1.7195787E-2,3.677731E-2,4.693569E-3,-7.6304585E-2,-4.4821944E-2,4.9279066E-4,-5.404928E-2,7.2756596E-2,5.0846357E-2,6.6807956E-2,7.665083E-2],"split_indices":[5,2,4,3,4,0,5,9,2,3,6,2,5,0,0,0,0,0,0,0,0,0,0,0,0],"split_type":[0,0,0,0,0,0,0,0,0,0,0,0,0,0,0,0,0,0,0,0,0,0,0,0,0],"sum_hessian":[9.274493E3,7.7420283E3,1.532465E3,6.0002515E3,1.7417767E3,6.84576E0,1.5256193E3,3.7632278E3,2.2370237E3,8.336989E2,9.080778E2,8.587048E2,6.669144E2,3.2344626E2,3.4397817E3,8.8249365E2,1.3545299E3,4.3605212E2,3.976468E2,4.362659E2,4.7181192E2,2.4315974E2,6.1554504E2,2.4878445E2,4.1813E2],"tree_param":{"num_deleted":"0","num_feature":"22","num_nodes":"25","size_leaf_vector":"1"}},{"base_weights":[-4.5249513E-3,9.790027E-1,-3.1297514E-1,1.052867E0,-8.194326E-1,-2.0346136E-1,-1.2537948E0,1.0840026E0,-7.7599734E-2,-7.8153E-2,-3.1125936E-1,-5.388667E-1,5.5474933E-2,-1.368073E0,1.3654444E-1,4.8113473E-2,7.009518E-2,-7.6392904E-2,1.0036706E-2,3.5297316E-2,-3.0473113E-2,-1.7366707E-2,1.8269235E-2,-7.008984E-2,2.2092564E-2,9.306579E-2,-4.682918E-2],"categories":[],"categories_nodes":[],"categories_segments":[],"categories_sizes":[],"default_left":[0,1,1,0,0,1,0,0,0,0,0,0,0,0,0,0,0,0,0,0,0,0,0,0,0,0,0],"id":8,"left_children":[1,3,5,7,9,11,13,15,-1,-1,17,19,21,23,25,-1,-1,-1,-1,-1,-1,-1,-1,-1,-1,-1,-1],"loss_changes":[2.7546052E3,2.88833E2,7.119313E2,1.7059814E2,3.204398E1,5.37859E2,1.1466626E2,7.832056E1,0E0,0E0,3.293784E1,2.3753223E2,4.3650452E2,4.126294E1,1.0471564E2,0E0,0E0,0E0,0E0,0E0,0E0,0E0,0E0,0E0,0E0,0E0,0E0],"parents":[2147483647,0,0,1,1,2,2,3,3,4,4,5,5,6,6,7,7,10,10,11,11,12,12,13,13,14,14],"right_children":[2,4,6,8,10,12,14,16,-1,-1,18,20,22,24,26,-1,-1,-1,-1,-1,-1,-1,-1,-1,-1,-1,-1],"split_conditions":[1E0,8E1,8.9E1,1E0,1E0,2.2E1,9.98E1,1.4E1,-7.7599734E-2,-7.8153E-2,2E0,9.76E1,2.5867817E9,5.2E1,8.232364E7,4.8113473E-2,7.009518E-2,-7.6392904E-2,1.0036706E-2,3.5297316E-2,-3.0473113E-2,-1.7366707E-2,1.8269235E-2,-7.008984E-2,2.2092564E-2,9.306579E-2,-4.682918E-2],"split_indices":[18,2,2,21,1,7,9,5,0,0,5,9,0,7,0,0,0,0,0,0,0,0,0,0,0,0,0],"split_type":[0,0,0,0,0,0,0,0,0,0,0,0,0,0,0,0,0,0,0,0,0,0,0,0,0,0,0],"sum_hessian":[9.078029E3,2.1667937E3,6.9112363E3,2.0817095E3,8.508422E1,6.1917207E3,7.1951556E2,2.0576978E3,2.4011534E1,3.3697575E1,5.1386646E1,2.6970706E3,3.4946501E3,6.648819E2,5.4633656E1,1.4908403E3,5.6685754E2,1.4632581E1,3.6754066E1,1.4426389E2,2.5528066E3,1.5195175E3,1.9751326E3,6.529414E2,1.1940504E1,2.0672909E1,3.3960747E1],"tree_param":{"num_deleted":"0","num_feature":"22","num_nodes":"27","size_leaf_vector":"1"}},{"base_weights":[1.848516E-2,9.352733E-1,-2.5997975E-1,-1.175197E0,9.9576426E-1,-7.2231805E-1,-9.421384E-2,6.573669E-1,-7.637207E-2,6.386838E-1,1.1735154E0,3.08337E-1,-9.0263724E-1,-4.6412623E-1,1.621478E-1,-5.8033377E-2,7.038935E-2,-1.0492337E-1,3.4268323E-2,5.2300062E-2,6.800232E-2,-2.9273683E-2,6.951711E-2,-6.542681E-2,-2.4880653E-2,5.3786244E-2,-2.8728792E-2,-3.198526E-3,2.3078868E-2],"categories":[],"categories_nodes":[],"categories_segments":[],"categories_sizes":[],"default_left":[0,0,0,0,0,0,1,0,0,0,0,0,0,0,0,0,0,0,0,0,0,0,0,0,0,0,0,0,0],"id":9,"left_children":[1,3,5,7,9,11,13,15,-1,17,19,21,23,25,27,-1,-1,-1,-1,-1,-1,-1,-1,-1,-1,-1,-1,-1,-1],"loss_changes":[2.3263916E3,2.7220337E2,5.3561865E2,3.9485313E1,1.3028113E2,3.430771E2,4.8808997E2,1.5700199E1,0E0,8.9387146E1,3.1332153E1,2.67158E2,2.5747485E2,3.5893387E2,2.0587996E2,0E0,0E0,0E0,0E0,0E0,0E0,0E0,0E0,0E0,0E0,0E0,0E0,0E0,0E0],"parents":[2147483647,0,0,1,1,2,2,3,3,4,4,5,5,6,6,7,7,9,9,10,10,11,11,12,12,13,13,14,14],"right_children":[2,4,6,8,10,12,14,16,-1,18,20,22,24,26,28,-1,-1,-1,-1,-1,-1,-1,-1,-1,-1,-1,-1,-1,-1],"split_conditions":[1E0,2.0000047E11,2.0004946E11,9.806E1,4E0,8.211829E7,2.1E1,9.8E1,-7.637207E-2,5.61961E5,1.4E1,9.968E1,2.0000625E11,9.76E1,1.5189529E7,-5.8033377E-2,7.038935E-2,-1.0492337E-1,3.4268323E-2,5.2300062E-2,6.800232E-2,-2.9273683E-2,6.951711E-2,-6.542681E-2,-2.4880653E-2,5.3786244E-2,-2.8728792E-2,-3.198526E-3,2.3078868E-2],"split_indices":[18,4,4,9,5,0,7,9,0,3,5,9,4,9,3,0,0,0,0,0,0,0,0,0,0,0,0,0,0],"split_type":[0,0,0,0,0,0,0,0,0,0,0,0,0,0,0,0,0,0,0,0,0,0,0,0,0,0,0,0,0],"sum_hessian":[9.11067E3,2.1220151E3,6.9886553E3,5.8613647E1,2.0634016E3,1.8435223E3,5.145133E3,9.310292E0,4.9303352E1,6.8729767E2,1.3761039E3,2.744026E2,1.5691198E3,2.1057986E3,3.0393342E3,2.560444E0,6.7498484E0,1.0788392E1,6.765093E2,8.212782E2,5.548257E2,1.5052089E2,1.238817E2,7.825995E2,7.865203E2,1.4034976E2,1.9654487E3,1.7321008E3,1.3072334E3],"tree_param":{"num_deleted":"0","num_feature":"22","num_nodes":"29","size_leaf_vector":"1"}},{"base_weights":[3.2553762E-2,8.9165795E-1,-2.2544788E-1,-1.0717427E0,9.384478E-1,-5.256427E-1,8.394114E-3,5.2674496E-1,-7.388114E-2,-9.64068E-2,9.508529E-1,6.377176E-1,-5.8736557E-1,-3.499552E-1,3.1209308E-1,6.7455105E-2,-5.955034E-2,4.3376982E-2,6.65893E-2,-9.009698E-2,4.877732E-2,-8.0365045E-3,-3.7323132E-2,-2.7733365E-2,3.336883E-2,1.002507E-2,4.597547E-2],"categories":[],"categories_nodes":[],"categories_segments":[],"categories_sizes":[],"default_left":[0,0,1,0,0,0,0,0,0,0,0,0,1,0,0,0,0,0,0,0,0,0,0,0,0,0,0],"id":10,"left_children":[1,3,5,7,9,11,13,15,-1,-1,17,19,21,23,25,-1,-1,-1,-1,-1,-1,-1,-1,-1,-1,-1,-1],"loss_changes":[2.0131189E3,1.9370862E2,4.903301E2,3.2758568E1,7.470801E1,2.19995E2,4.275241E2,1.674806E1,0E0,0E0,6.3625E1,1.2915735E2,1.9705792E2,3.7566553E2,1.4394185E2,0E0,0E0,0E0,0E0,0E0,0E0,0E0,0E0,0E0,0E0,0E0,0E0],"parents":[2147483647,0,0,1,1,2,2,3,3,4,4,5,5,6,6,7,7,10,10,11,11,12,12,13,13,14,14],"right_children":[2,4,6,8,10,12,14,16,-1,-1,18,20,22,24,26,-1,-1,-1,-1,-1,-1,-1,-1,-1,-1,-1,-1],"split_conditions":[2.00001E0,8.303642E7,2.2E1,9.806E1,3.7152E5,9.76E1,2.5867817E9,6.8E1,-7.388114E-2,-9.64068E-2,1E0,1.239017E9,1.572551E6,1.5698834E7,4.2E1,6.7455105E-2,-5.955034E-2,4.3376982E-2,6.65893E-2,-9.009698E-2,4.877732E-2,-8.0365045E-3,-3.7323132E-2,-2.7733365E-2,3.336883E-2,1.002507E-2,4.597547E-2],"split_indices":[10,0,7,9,3,9,0,6,0,0,10,0,3,3,7,0,0,0,0,0,0,0,0,0,0,0,0],"split_type":[0,0,0,0,0,0,0,0,0,0,0,0,0,0,0,0,0,0,0,0,0,0,0,0,0,0,0],"sum_hessian":[9.080504E3,2.096624E3,6.9838794E3,4.829179E1,2.0483323E3,3.0575278E3,3.9263516E3,9.718685E0,3.857311E1,8.160507E0,2.0401719E3,1.5357602E2,2.903952E3,1.8010509E3,2.1253005E3,6.7174044E0,3.0012805E0,1.6767336E3,3.6343817E2,1.815249E1,1.3542352E2,7.893195E2,2.1146323E3,1.4997244E3,3.013265E2,1.7965726E3,3.287279E2],"tree_param":{"num_deleted":"0","num_feature":"22","num_nodes":"27","size_leaf_vector":"1"}},{"base_weights":[1.1498213E-3,-2.4252374E-1,9.554747E-1,-5.335329E-1,-5.8070462E-2,-1.1047426E0,1.0005196E0,-7.1529366E-2,-6.4502597E-1,-3.687071E-1,2.4091105E-1,-7.6903656E-2,6.334454E-2,7.427678E-1,1.1886674E0,-6.204666E-2,3.8151469E-3,-4.7208738E-2,-2.3223717E-2,-2.3466874E-2,1.9715948E-2,2.1052865E-2,-5.469512E-3,-1.0132631E-1,4.055923E-2,5.1505025E-2,6.596627E-2],"categories":[],"categories_nodes":[],"categories_segments":[],"categories_sizes":[],"default_left":[1,0,0,0,0,0,0,0,0,1,0,0,0,0,0,0,0,0,0,0,0,0,0,0,0,0,0],"id":11,"left_children":[1,3,5,7,9,11,13,15,17,19,21,-1,-1,23,25,-1,-1,-1,-1,-1,-1,-1,-1,-1,-1,-1,-1],"loss_changes":[2.0673066E3,3.801002E2,1.689126E2,1.4146301E2,4.0275046E2,4.2198124E1,8.495691E1,9.261899E1,1.1908948E2,1.6348236E2,1.3949776E2,0E0,0E0,1.4365714E2,1.9804688E1,0E0,0E0,0E0,0E0,0E0,0E0,0E0,0E0,0E0,0E0,0E0,0E0],"parents":[2147483647,0,0,1,1,2,2,3,3,4,4,5,5,6,6,7,7,8,8,9,9,10,10,13,13,14,14],"right_children":[2,4,6,8,10,12,14,16,18,20,22,-1,-1,24,26,-1,-1,-1,-1,-1,-1,-1,-1,-1,-1,-1,-1],"split_conditions":[2E0,2.2E1,8.329042E7,7.5E1,2.5555876E9,1.7E1,5E0,3.5590355E8,1.9E1,1.5698834E7,9.3E1,-7.6903656E-2,6.334454E-2,1.547021E6,1.4E1,-6.204666E-2,3.8151469E-3,-4.7208738E-2,-2.3223717E-2,-2.3466874E-2,1.9715948E-2,2.1052865E-2,-5.469512E-3,-1.0132631E-1,4.055923E-2,5.1505025E-2,6.596627E-2],"split_indices":[5,7,0,6,0,5,5,0,7,3,6,0,0,3,5,0,0,0,0,0,0,0,0,0,0,0,0],"split_type":[0,0,0,0,0,0,0,0,0,0,0,0,0,0,0,0,0,0,0,0,0,0,0,0,0,0,0],"sum_hessian":[8.887971E3,7.080747E3,1.8072242E3,2.7462063E3,4.3345405E3,3.816466E1,1.7690596E3,5.342072E2,2.211999E3,2.1257205E3,2.20882E3,3.256589E1,5.598769E0,7.4854407E2,1.02051556E3,5.912378E1,4.7508344E2,8.309696E2,1.3810295E3,1.8783787E3,2.4734187E2,1.4585453E3,7.502748E2,1.7357254E1,7.311868E2,4.6503336E2,5.554822E2],"tree_param":{"num_deleted":"0","num_feature":"22","num_nodes":"27","size_leaf_vector":"1"}},{"base_weights":[-1.7251413E-2,-2.5585493E-1,8.11683E-1,-5.5274844E-1,-4.9469743E-2,5.1514304E-1,1.1288234E0,7.90304E-1,-6.354217E-1,-2.4048421E-1,4.0125516E-1,-4.4640326E-1,6.466796E-1,-1.1850158E-1,1.1434593E0,-8.486395E-2,5.5906158E-2,-6.45893E-2,-2.7400134E-2,-2.174872E-2,9.644578E-3,5.6539427E-2,9.88553E-3,-6.886648E-2,2.368698E-2,-1.7720034E-2,3.5424322E-2,5.769067E-2,-1.01875424E-1],"categories":[],"categories_nodes":[],"categories_segments":[],"categories_sizes":[],"default_left":[1,1,0,0,0,0,0,0,0,0,0,0,0,0,1,0,0,0,0,0,0,0,0,0,0,0,0,0,0],"id":12,"left_children":[1,3,5,7,9,11,13,15,17,19,21,23,25,-1,27,-1,-1,-1,-1,-1,-1,-1,-1,-1,-1,-1,-1,-1,-1],"loss_changes":[1.7397358E3,4.18476E2,1.8430957E2,3.11482E2,3.470793E2,1.2902243E2,5.131555E1,1.3470004E2,1.5070874E2,2.3872281E2,1.7796423E2,1.06074776E2,5.5674957E1,0E0,3.350403E1,0E0,0E0,0E0,0E0,0E0,0E0,0E0,0E0,0E0,0E0,0E0,0E0,0E0,0E0],"parents":[2147483647,0,0,1,1,2,2,3,3,4,4,5,5,6,6,7,7,8,8,9,9,10,10,11,11,12,12,14,14],"right_children":[2,4,6,8,10,12,14,16,18,20,22,24,26,-1,28,-1,-1,-1,-1,-1,-1,-1,-1,-1,-1,-1,-1,-1,-1],"split_conditions":[1E0,2.1E1,5E0,9.76E1,9.227197E9,8.371533E7,1.9E1,1.239017E9,8.3592664E7,1.4794821E7,1.663856E6,4E0,1.542942E6,-1.1850158E-1,9.99E1,-8.486395E-2,5.5906158E-2,-6.45893E-2,-2.7400134E-2,-2.174872E-2,9.644578E-3,5.6539427E-2,9.88553E-3,-6.886648E-2,2.368698E-2,-1.7720034E-2,3.5424322E-2,5.769067E-2,-1.01875424E-1],"split_indices":[5,7,5,9,0,0,7,0,0,3,3,5,3,0,9,0,0,0,0,0,0,0,0,0,0,0,0,0,0],"split_type":[0,0,0,0,0,0,0,0,0,0,0,0,0,0,0,0,0,0,0,0,0,0,0,0,0,0,0,0,0],"sum_hessian":[8.793972E3,6.8289834E3,1.9649884E3,2.7997502E3,4.0292332E3,1.0168315E3,9.4815686E2,1.6185214E2,2.6378982E3,2.830255E3,1.1989783E3,1.2207274E2,8.947588E2,3.2793045E0,9.4487756E2,1.8359285E1,1.4349284E2,3.0842072E2,2.3294773E3,1.9535416E3,8.767132E2,2.6055515E2,9.384231E2,6.043382E1,6.1638924E1,5.175493E1,8.4300385E2,9.424472E2,2.4303677E0],"tree_param":{"num_deleted":"0","num_feature":"22","num_nodes":"29","size_leaf_vector":"1"}},{"base_weights":[7.110414E-3,-1.977164E-1,8.629061E-1,1.0925235E-2,-7.2773165E-1,-7.049063E-2,9.0953696E-1,-5.497932E-1,1.6143465E-1,-8.1164974E-1,5.9721684E-1,6.414231E-1,1.1038336E0,-9.65533E-3,-3.9012346E-2,-5.863908E-2,1.0499992E-2,-3.2664225E-2,-6.097256E-2,-7.567316E-2,4.65428E-2,-9.72687E-2,3.4930672E-2,4.964427E-2,6.612279E-2],"categories":[],"categories_nodes":[],"categories_segments":[],"categories_sizes":[],"default_left":[1,1,0,1,0,0,0,1,0,0,0,0,0,0,0,0,0,0,0,0,0,0,0,0,0],"id":13,"left_children":[1,3,5,7,9,-1,11,13,15,17,19,21,23,-1,-1,-1,-1,-1,-1,-1,-1,-1,-1,-1,-1],"loss_changes":[1.551605E3,7.898214E2,1.8244507E2,4.3267517E2,2.2479626E2,0E0,8.6583374E1,8.903204E1,2.6214587E2,1.21758545E2,8.643625E1,1.0587424E2,2.2219727E1,0E0,0E0,0E0,0E0,0E0,0E0,0E0,0E0,0E0,0E0,0E0,0E0],"parents":[2147483647,0,0,1,1,2,2,3,3,4,4,6,6,7,7,8,8,9,9,10,10,11,11,12,12],"right_children":[2,4,6,8,10,-1,12,14,16,18,20,22,24,-1,-1,-1,-1,-1,-1,-1,-1,-1,-1,-1,-1],"split_conditions":[2E0,7.8E1,2.0000047E11,1.9E1,4.7E1,-7.049063E-2,5E0,7.46035E5,1.0593275E8,9.1E1,1.239017E9,1.547021E6,2.4E1,-9.65533E-3,-3.9012346E-2,-5.863908E-2,1.0499992E-2,-3.2664225E-2,-6.097256E-2,-7.567316E-2,4.65428E-2,-9.72687E-2,3.4930672E-2,4.964427E-2,6.612279E-2],"split_indices":[5,2,4,7,7,0,5,3,4,2,0,3,5,0,0,0,0,0,0,0,0,0,0,0,0],"split_type":[0,0,0,0,0,0,0,0,0,0,0,0,0,0,0,0,0,0,0,0,0,0,0,0,0],"sum_hessian":[8.849678E3,7.1412534E3,1.7084242E3,5.124832E3,2.0164216E3,3.376037E1,1.6746638E3,1.083951E3,4.0408809E3,1.8966792E3,1.19742386E2,7.054712E2,9.691927E2,4.261743E2,6.5777673E2,1.411083E2,3.8997725E3,1.3680239E3,5.286553E2,1.5861642E1,1.0388074E2,1.4545429E1,6.909257E2,6.4659485E2,3.225978E2],"tree_param":{"num_deleted":"0","num_feature":"22","num_nodes":"25","size_leaf_vector":"1"}},{"base_weights":[1.8332958E-2,-1.8215984E-1,8.5656E-1,-1.5235301E-2,-7.632392E-1,-6.907614E-2,9.0021956E-1,-2.1507204E-1,2.3898555E-1,-8.5492903E-1,1.3295907E-1,6.220186E-1,1.1003411E0,1.4376721E-2,-1.5897583E-2,-1.1179742E-4,2.7945206E-2,-5.6700498E-2,-2.551739E-2,4.0839236E-2,-5.7313334E-2,-9.252422E-2,3.4201365E-2,4.97283E-2,6.524904E-2],"categories":[],"categories_nodes":[],"categories_segments":[],"categories_sizes":[],"default_left":[1,1,0,1,0,0,0,0,0,0,1,0,0,0,0,0,0,0,0,0,0,0,0,0,0],"id":14,"left_children":[1,3,5,7,9,-1,11,13,15,17,19,21,23,-1,-1,-1,-1,-1,-1,-1,-1,-1,-1,-1,-1],"loss_changes":[1.4860852E3,6.9214886E2,1.6802136E2,2.8172696E2,1.3096777E2,0E0,9.255554E1,1.6063538E2,1.8835173E2,1.3835913E2,1.3098418E2,1.09045044E2,1.97583E1,0E0,0E0,0E0,0E0,0E0,0E0,0E0,0E0,0E0,0E0,0E0,0E0],"parents":[2147483647,0,0,1,1,2,2,3,3,4,4,6,6,7,7,8,8,9,9,10,10,11,11,12,12],"right_children":[2,4,6,8,10,-1,12,14,16,18,20,22,24,-1,-1,-1,-1,-1,-1,-1,-1,-1,-1,-1,-1],"split_conditions":[2E0,8.1E1,2.0000047E11,2.4E1,4E1,-6.907614E-2,5E0,1.663856E6,1.471024E7,2.0013022E11,9.89E1,1.547021E6,2.4E1,1.4376721E-2,-1.5897583E-2,-1.1179742E-4,2.7945206E-2,-5.6700498E-2,-2.551739E-2,4.0839236E-2,-5.7313334E-2,-9.252422E-2,3.4201365E-2,4.97283E-2,6.524904E-2],"split_indices":[5,2,4,7,7,0,5,3,3,4,9,3,5,0,0,0,0,0,0,0,0,0,0,0,0],"split_type":[0,0,0,0,0,0,0,0,0,0,0,0,0,0,0,0,0,0,0,0,0,0,0,0,0],"sum_hessian":[8.840739E3,7.134939E3,1.7058002E3,5.5435034E3,1.5914357E3,3.2052967E1,1.6737472E3,3.1038206E3,2.4396826E3,1.4437699E3,1.4766571E2,7.019846E2,9.717626E2,5.2707275E2,2.5767478E3,1.391484E3,1.0481986E3,7.9643536E2,6.473346E2,9.646218E1,5.1203533E1,1.646892E1,6.855157E2,6.444938E2,3.2726883E2],"tree_param":{"num_deleted":"0","num_feature":"22","num_nodes":"25","size_leaf_vector":"1"}},{"base_weights":[-3.4032934E-3,3.6335158E-1,-3.979599E-1,1.5097405E-1,9.764118E-1,2.9350948E-1,-5.446708E-1,-1.8620819E-1,4.1533637E-1,8.598413E-1,6.4031415E-2,-8.6075354E-1,5.017868E-1,7.078792E-1,-6.253011E-1,5.0085217E-2,-1.40741095E-2,-5.4475546E-2,2.5863776E-2,3.518628E-2,5.749437E-2,-6.449761E-2,5.3559184E-2,5.7082016E-2,3.1310183E-3,-3.0578867E-2,7.6270625E-2,-4.8022218E-2,-1.1857236E-2],"categories":[],"categories_nodes":[],"categories_segments":[],"categories_sizes":[],"default_left":[1,1,1,1,0,0,0,0,0,1,0,1,0,0,0,0,0,0,0,0,0,0,0,0,0,0,0,0,0],"id":15,"left_children":[1,3,5,7,9,11,13,15,17,19,-1,21,23,25,27,-1,-1,-1,-1,-1,-1,-1,-1,-1,-1,-1,-1,-1,-1],"loss_changes":[1.2539414E3,5.845769E2,4.2364734E2,2.9750165E2,3.9868896E1,1.7624979E2,3.482815E2,1.663199E2,2.875189E2,3.714923E1,0E0,9.4382965E1,1.74199E2,2.2613455E2,4.2078906E2,0E0,0E0,0E0,0E0,0E0,0E0,0E0,0E0,0E0,0E0,0E0,0E0,0E0,0E0],"parents":[2147483647,0,0,1,1,2,2,3,3,4,4,5,5,6,6,7,7,8,8,9,9,11,11,12,12,13,13,14,14],"right_children":[2,4,6,8,10,12,14,16,18,20,-1,22,24,26,28,-1,-1,-1,-1,-1,-1,-1,-1,-1,-1,-1,-1,-1,-1],"split_conditions":[6.4E1,4E0,9.81E1,2.1E1,2.4E1,9.674819E8,8.211829E7,1E0,1.324006E8,2.2E1,6.4031415E-2,1E0,1.9387565E9,9.95E1,2.0014146E11,5.0085217E-2,-1.40741095E-2,-5.4475546E-2,2.5863776E-2,3.518628E-2,5.749437E-2,-6.449761E-2,5.3559184E-2,5.7082016E-2,3.1310183E-3,-3.0578867E-2,7.6270625E-2,-4.8022218E-2,-1.1857236E-2],"split_indices":[2,5,9,7,5,0,0,13,4,7,0,19,0,9,4,0,0,0,0,0,0,0,0,0,0,0,0,0,0],"split_type":[0,0,0,0,0,0,0,0,0,0,0,0,0,0,0,0,0,0,0,0,0,0,0,0,0,0,0,0,0],"sum_hessian":[8.663469E3,4.4899624E3,4.1735063E3,3.335662E3,1.1543003E3,7.303347E2,3.4431716E3,1.4660618E3,1.8696002E3,8.37291E2,3.1700934E2,1.1115979E2,6.191749E2,2.077714E2,3.2354004E3,1.0814574E2,1.357916E3,1.1799816E2,1.751602E3,5.465433E2,2.9074774E2,9.122547E1,1.9934324E1,2.5135625E2,3.678187E2,7.958203E1,1.2818936E2,1.7354758E3,1.4999246E3],"tree_param":{"num_deleted":"0","num_feature":"22","num_nodes":"29","size_leaf_vector":"1"}},{"base_weights":[-4.3262876E-4,-1.9353455E-1,8.1232023E-1,-4.482142E-2,-7.190633E-1,-6.692658E-2,8.5414135E-1,-2.448103E-1,2.0535931E-1,-1.093965E0,-4.1214848E-1,4.6083367E-1,9.790191E-1,1.2669644E-2,-1.7457142E-2,-7.518649E-3,2.26166E-2,-6.701986E-2,-1.7989574E-2,-9.85731E-3,-4.874624E-2,-2.5328532E-2,3.974284E-2,4.2692848E-2,5.8842003E-2],"categories":[],"categories_nodes":[],"categories_segments":[],"categories_sizes":[],"default_left":[1,1,0,1,0,0,0,0,0,0,0,1,0,0,0,0,0,0,0,0,0,0,0,0,0],"id":16,"left_children":[1,3,5,7,9,-1,11,13,15,17,19,21,23,-1,-1,-1,-1,-1,-1,-1,-1,-1,-1,-1,-1],"loss_changes":[1.3547213E3,5.450647E2,1.5020374E2,2.721033E2,1.7655109E2,0E0,7.941699E1,1.571839E2,2.1234048E2,1.2469043E2,1.023481E2,1.2764419E2,2.9532837E1,0E0,0E0,0E0,0E0,0E0,0E0,0E0,0E0,0E0,0E0,0E0,0E0],"parents":[2147483647,0,0,1,1,2,2,3,3,4,4,6,6,7,7,8,8,9,9,10,10,11,11,12,12],"right_children":[2,4,6,8,10,-1,12,14,16,18,20,22,24,-1,-1,-1,-1,-1,-1,-1,-1,-1,-1,-1,-1],"split_conditions":[2E0,8.1E1,2.0000047E11,2.4E1,2.0009648E11,-6.692658E-2,4E0,1.663856E6,2.5555876E9,3E1,9E1,1.547021E6,1.4E1,1.2669644E-2,-1.7457142E-2,-7.518649E-3,2.26166E-2,-6.701986E-2,-1.7989574E-2,-9.85731E-3,-4.874624E-2,-2.5328532E-2,3.974284E-2,4.2692848E-2,5.8842003E-2],"split_indices":[5,2,4,7,4,0,5,3,0,7,2,3,5,0,0,0,0,0,0,0,0,0,0,0,0],"split_type":[0,0,0,0,0,0,0,0,0,0,0,0,0,0,0,0,0,0,0,0,0,0,0,0,0],"sum_hessian":[8.629867E3,6.973739E3,1.6561284E3,5.4364326E3,1.5373062E3,3.0996191E1,1.6251323E3,3.0212969E3,2.4151357E3,6.908529E2,8.4645325E2,3.927716E2,1.2323607E3,5.229077E2,2.4983892E3,9.898196E2,1.425316E3,5.166192E2,1.742337E2,6.1344415E2,2.3300908E2,1.006758E2,2.9209583E2,7.580533E2,4.7430734E2],"tree_param":{"num_deleted":"0","num_feature":"22","num_nodes":"25","size_leaf_vector":"1"}},{"base_weights":[-1.2353511E-2,-1.908952E-1,7.6758844E-1,-2.6902022E-2,-6.165932E-1,-6.550401E-2,8.0763584E-1,-1.8037014E-1,2.9413885E-1,-9.647212E-1,-3.4880984E-1,5.538363E-1,1.0085641E0,-1.6013423E-3,-3.1725317E-2,-2.2058584E-2,2.0956848E-2,-5.0549604E-2,5.6674816E-2,7.5667314E-2,-2.0624138E-2,6.0092982E-2,1.6082374E-2,4.4604864E-2,6.196743E-2],"categories":[],"categories_nodes":[],"categories_segments":[],"categories_sizes":[],"default_left":[1,1,0,1,0,0,0,1,1,0,0,0,0,0,0,0,0,0,0,0,0,0,0,0,0],"id":17,"left_children":[1,3,5,7,9,-1,11,13,15,17,19,21,23,-1,-1,-1,-1,-1,-1,-1,-1,-1,-1,-1,-1],"loss_changes":[1.1878683E3,4.845661E2,1.3327063E2,2.4699031E2,1.7961432E2,0E0,7.8972046E1,2.2846452E2,1.4920944E2,8.257172E1,1.3017682E2,1.03634155E2,2.225824E1,0E0,0E0,0E0,0E0,0E0,0E0,0E0,0E0,0E0,0E0,0E0,0E0],"parents":[2147483647,0,0,1,1,2,2,3,3,4,4,6,6,7,7,8,8,9,9,10,10,11,11,12,12],"right_children":[2,4,6,8,10,-1,12,14,16,18,20,22,24,-1,-1,-1,-1,-1,-1,-1,-1,-1,-1,-1,-1],"split_conditions":[2E0,7.8E1,1.923894E8,1.5214813E7,2.0009648E11,-6.550401E-2,5E0,5.192498E6,2E1,6.2E1,2.0009748E11,4.2E1,2.4E1,-1.6013423E-3,-3.1725317E-2,-2.2058584E-2,2.0956848E-2,-5.0549604E-2,5.6674816E-2,7.5667314E-2,-2.0624138E-2,6.0092982E-2,1.6082374E-2,4.4604864E-2,6.196743E-2],"split_indices":[5,2,4,3,4,0,5,3,7,7,4,2,5,0,0,0,0,0,0,0,0,0,0,0,0],"split_type":[0,0,0,0,0,0,0,0,0,0,0,0,0,0,0,0,0,0,0,0,0,0,0,0,0],"sum_hessian":[8.528289E3,6.940295E3,1.5879937E3,5.010966E3,1.9293292E3,2.9430292E1,1.5585634E3,3.39059E3,1.6203756E3,8.3769403E2,1.0916351E3,6.903343E2,8.682291E2,2.5565615E3,8.340286E2,2.3506412E2,1.3853115E3,8.201264E2,1.7567642E1,3.5339554E1,1.0562957E3,1.809998E2,5.0933447E2,5.802617E2,2.8796738E2],"tree_param":{"num_deleted":"0","num_feature":"22","num_nodes":"25","size_leaf_vector":"1"}},{"base_weights":[4.9449336E-3,6.9439673E-1,-1.8233943E-1,8.560345E-1,1.514304E-1,-1.0122385E-1,-1.0991874E0,7.258224E-1,1.0852981E0,1.2127918E0,-1.7988786E-1,2.0224941E-1,-2.4856488E-1,-1.2554071E0,6.3395303E-1,2.6983533E-2,5.4074902E-2,-5.5256374E-2,5.5186417E-2,-9.68596E-2,6.746434E-2,-4.2678403E-6,-1.1137569E-1,-2.8173536E-2,1.429675E-2,-2.1358306E-2,9.4040455E-3,-3.8263075E-2,-6.6977195E-2,1.1195284E-1,-2.8583026E-2],"categories":[],"categories_nodes":[],"categories_segments":[],"categories_sizes":[],"default_left":[0,1,1,1,1,0,0,0,0,0,0,0,1,0,0,0,0,0,0,0,0,0,0,0,0,0,0,0,0,0,0],"id":18,"left_children":[1,3,5,7,9,11,13,15,17,19,21,23,25,27,29,-1,-1,-1,-1,-1,-1,-1,-1,-1,-1,-1,-1,-1,-1,-1,-1],"loss_changes":[1.1098696E3,1.6101453E2,5.0258362E2,4.1444702E1,1.4876244E2,2.7776996E2,1.495202E2,5.935373E1,2.1825562E1,4.587755E1,1.1884426E2,1.3027606E2,3.2617645E2,1.9768555E1,9.045683E1,0E0,0E0,0E0,0E0,0E0,0E0,0E0,0E0,0E0,0E0,0E0,0E0,0E0,0E0,0E0,0E0],"parents":[2147483647,0,0,1,1,2,2,3,3,4,4,5,5,6,6,7,7,8,8,9,9,10,10,11,11,12,12,13,13,14,14],"right_children":[2,4,6,8,10,12,14,16,18,20,22,24,26,28,30,-1,-1,-1,-1,-1,-1,-1,-1,-1,-1,-1,-1,-1,-1,-1,-1],"split_conditions":[1E0,5.4E1,9E1,2.7E1,9.78E1,5.8E1,9.98E1,1E0,3.596814E8,9.76E1,1E0,9.82E1,2.0019855E11,9.806E1,8.232364E7,2.6983533E-2,5.4074902E-2,-5.5256374E-2,5.5186417E-2,-9.68596E-2,6.746434E-2,-4.2678403E-6,-1.1137569E-1,-2.8173536E-2,1.429675E-2,-2.1358306E-2,9.4040455E-3,-3.8263075E-2,-6.6977195E-2,1.1195284E-1,-2.8583026E-2],"split_indices":[18,2,2,2,9,2,9,11,0,9,17,9,4,9,0,0,0,0,0,0,0,0,0,0,0,0,0,0,0,0,0],"split_type":[0,0,0,0,0,0,0,0,0,0,0,0,0,0,0,0,0,0,0,0,0,0,0,0,0,0,0,0,0,0,0],"sum_hessian":[8.593428E3,1.8351102E3,6.7583174E3,1.4136875E3,4.2142273E2,6.210014E3,5.483034E2,9.042672E2,5.094203E2,9.962347E1,3.2179926E2,2.0295165E3,4.1804976E3,5.0322037E2,4.508302E1,5.952471E2,3.0902014E2,3.7585282E0,5.0566174E2,3.5896769E0,9.603379E1,2.967423E2,2.5056969E1,1.9938817E2,1.8301283E3,2.9669485E3,1.2135492E3,7.520464E1,4.2801575E2,1.8969982E1,2.6113039E1],"tree_param":{"num_deleted":"0","num_feature":"22","num_nodes":"31","size_leaf_vector":"1"}},{"base_weights":[2.3884362E-2,6.87399E-1,-1.5693781E-1,-9.25236E-1,7.3278254E-1,-4.556534E-1,2.0693908E-2,7.4495363E-1,-6.5482765E-2,4.3403924E-1,9.01419E-1,1.4682586E-1,-6.0009E-1,-1.5033728E-1,3.9681524E-1,-5.036825E-2,7.171735E-2,6.923971E-3,4.1205492E-2,4.029246E-2,5.9933353E-2,4.434943E-2,-1.00488495E-2,4.0872926E-3,-3.462186E-2,2.498495E-3,-2.9796097E-2,1.6619151E-2,5.7828553E-2],"categories":[],"categories_nodes":[],"categories_segments":[],"categories_sizes":[],"default_left":[0,0,0,0,0,1,1,0,0,1,0,0,0,1,0,0,0,0,0,0,0,0,0,0,0,0,0,0,0],"id":19,"left_children":[1,3,5,7,9,11,13,15,-1,17,19,21,23,25,27,-1,-1,-1,-1,-1,-1,-1,-1,-1,-1,-1,-1,-1,-1],"loss_changes":[1.0306523E3,1.3531921E2,3.5821313E2,3.3590736E1,8.978174E1,2.191543E2,2.7244717E2,1.3696583E1,0E0,7.456371E1,3.1508484E1,1.2570553E2,1.2792755E2,2.5988916E2,6.442201E1,0E0,0E0,0E0,0E0,0E0,0E0,0E0,0E0,0E0,0E0,0E0,0E0,0E0,0E0],"parents":[2147483647,0,0,1,1,2,2,3,3,4,4,5,5,6,6,7,7,9,9,10,10,11,11,12,12,13,13,14,14],"right_children":[2,4,6,8,10,12,14,16,-1,18,20,22,24,26,28,-1,-1,-1,-1,-1,-1,-1,-1,-1,-1,-1,-1,-1,-1],"split_conditions":[1E0,2.0000047E11,2.2E1,9.806E1,4E0,9.806E1,1.5189529E7,9.8E1,-6.5482765E-2,1.4794821E7,2.4E1,7.5E1,1.09605E6,9.3E1,5.2E1,-5.036825E-2,7.171735E-2,6.923971E-3,4.1205492E-2,4.029246E-2,5.9933353E-2,4.434943E-2,-1.00488495E-2,4.0872926E-3,-3.462186E-2,2.498495E-3,-2.9796097E-2,1.6619151E-2,5.7828553E-2],"split_indices":[18,4,7,9,5,9,3,9,0,3,5,6,3,6,7,0,0,0,0,0,0,0,0,0,0,0,0,0,0],"split_type":[0,0,0,0,0,0,0,0,0,0,0,0,0,0,0,0,0,0,0,0,0,0,0,0,0,0,0,0,0],"sum_hessian":[8.588433E3,1.8386884E3,6.7497437E3,4.9798126E1,1.7888903E3,2.5164214E3,4.2333223E3,9.141802E0,4.0656322E1,6.467435E2,1.1421467E3,4.8661578E2,2.0298057E3,2.9104656E3,1.3228567E3,2.4508731E0,6.690929E0,3.687179E2,2.7802567E2,8.670786E2,2.750681E2,1.5506665E2,3.3154913E2,2.4213582E2,1.7876699E3,2.0084701E3,9.0199554E2,1.2207653E3,1.0209136E2],"tree_param":{"num_deleted":"0","num_feature":"22","num_nodes":"29","size_leaf_vector":"1"}},{"base_weights":[1.3371629E-3,3.394491E-1,-3.736842E-1,1.632E-1,8.8014084E-1,-1.2263118E-1,-7.211703E-1,-2.7858707E-1,2.9729238E-1,7.303738E-1,1.0952446E0,1.3916515E-2,-9.627612E-1,-8.598834E-1,2.188936E-1,-7.1190834E-2,-3.6415288E-3,-9.217921E-2,1.6073471E-2,5.569723E-2,2.8192813E-2,-8.97454E-3,5.5573042E-2,-7.520385E-2,3.1200913E-3,-6.1294325E-2,3.7067145E-2,-5.976048E-2,-3.0631563E-2,6.537416E-2,-2.4573492E-2],"categories":[],"categories_nodes":[],"categories_segments":[],"categories_sizes":[],"default_left":[1,1,0,1,0,0,0,0,0,0,0,0,0,0,0,0,0,0,0,0,0,0,0,0,0,0,0,0,0,0,0],"id":20,"left_children":[1,3,5,7,9,11,13,15,17,19,21,23,25,27,29,-1,-1,-1,-1,-1,-1,-1,-1,-1,-1,-1,-1,-1,-1,-1,-1],"loss_changes":[1.064281E3,4.204876E2,3.4707397E2,1.9735625E2,3.4149597E1,2.651881E2,2.1782104E2,1.8273125E2,1.328467E2,4.0413605E1,9.363098E0,1.4651093E2,1.4582327E2,1.1986658E2,1.6721005E2,0E0,0E0,0E0,0E0,0E0,0E0,0E0,0E0,0E0,0E0,0E0,0E0,0E0,0E0,0E0,0E0],"parents":[2147483647,0,0,1,1,2,2,3,3,4,4,5,5,6,6,7,7,8,8,9,9,10,10,11,11,12,12,13,13,14,14],"right_children":[2,4,6,8,10,12,14,16,18,20,22,24,26,28,30,-1,-1,-1,-1,-1,-1,-1,-1,-1,-1,-1,-1,-1,-1,-1,-1],"split_conditions":[6.4E1,4E0,8.9E1,2.0000625E11,1.4E1,8.9E1,1.2704E10,4.906795E6,2.99982E5,9.3E1,8.359941E7,9.1067816E7,1.6687491E7,4.725635E6,1.663856E6,-7.1190834E-2,-3.6415288E-3,-9.217921E-2,1.6073471E-2,5.569723E-2,2.8192813E-2,-8.97454E-3,5.5573042E-2,-7.520385E-2,3.1200913E-3,-6.1294325E-2,3.7067145E-2,-5.976048E-2,-3.0631563E-2,6.537416E-2,-2.4573492E-2],"split_indices":[2,5,6,4,5,2,0,3,3,6,0,4,3,3,3,0,0,0,0,0,0,0,0,0,0,0,0,0,0,0,0],"split_type":[0,0,0,0,0,0,0,0,0,0,0,0,0,0,0,0,0,0,0,0,0,0,0,0,0,0,0,0,0,0,0],"sum_hessian":[8.391437E3,4.4129243E3,3.978512E3,3.3290552E3,1.0838691E3,2.3105386E3,1.6679733E3,7.7491296E2,2.5541423E3,6.415691E2,4.4230008E2,1.9883519E3,3.221866E2,1.4535735E3,2.1439986E2,1.1711839E2,6.5779456E2,2.7681566E1,2.5264607E3,1.9248746E2,4.4908167E2,5.429451E0,4.3687064E2,6.0613823E1,1.9277382E3,2.793359E2,4.2850716E1,6.1528424E2,8.382892E2,8.432944E1,1.3007042E2],"tree_param":{"num_deleted":"0","num_feature":"22","num_nodes":"31","size_leaf_vector":"1"}},{"base_weights":[1.0982332E-3,1.5208116E-1,-7.0763654E-1,6.9368076E-1,-2.0407427E-2,1.3227377E0,-7.388546E-1,1.0678463E0,5.671279E-1,-5.06693E-1,7.372512E-2,-6.283956E-2,1.9151626E0,-1.3291761E0,-6.1551094E-1,-1.260894E-2,5.5841964E-2,2.0144159E-2,5.311097E-2,3.1523556E-2,-3.291349E-2,-7.9823425E-3,1.47958845E-2,1.1130687E-1,5.030043E-2,2.206196E-2,-7.0829615E-2,-3.3471957E-2,5.1046103E-2],"categories":[],"categories_nodes":[],"categories_segments":[],"categories_sizes":[],"default_left":[1,0,1,0,0,0,0,0,0,0,0,0,1,0,0,0,0,0,0,0,0,0,0,0,0,0,0,0,0],"id":21,"left_children":[1,3,5,7,9,11,13,15,17,19,21,-1,23,25,27,-1,-1,-1,-1,-1,-1,-1,-1,-1,-1,-1,-1,-1,-1],"loss_changes":[8.958237E2,6.447431E2,9.416626E1,7.833313E1,2.3968695E2,3.6976627E1,1.0465802E2,2.7457336E1,1.0104361E2,1.4678946E2,2.2753633E2,0E0,3.0736313E0,3.9238525E1,1.0659219E2,0E0,0E0,0E0,0E0,0E0,0E0,0E0,0E0,0E0,0E0,0E0,0E0,0E0,0E0],"parents":[2147483647,0,0,1,1,2,2,3,3,4,4,5,5,6,6,7,7,8,8,9,9,10,10,12,12,13,13,14,14],"right_children":[2,4,6,8,10,12,14,16,18,20,22,-1,24,26,28,-1,-1,-1,-1,-1,-1,-1,-1,-1,-1,-1,-1,-1,-1],"split_conditions":[8.1E1,1E0,9.71E1,4.1E1,2E1,9.3E1,2E1,1.9E1,1.5E1,7.57108E5,2.5821256E9,-6.283956E-2,2E1,9.76E1,1.4101352E10,-1.260894E-2,5.5841964E-2,2.0144159E-2,5.311097E-2,3.1523556E-2,-3.291349E-2,-7.9823425E-3,1.47958845E-2,1.1130687E-1,5.030043E-2,2.206196E-2,-7.0829615E-2,-3.3471957E-2,5.1046103E-2],"split_indices":[2,18,9,2,7,2,7,7,5,3,0,0,7,9,0,0,0,0,0,0,0,0,0,0,0,0,0,0,0],"split_type":[0,0,0,0,0,0,0,0,0,0,0,0,0,0,0,0,0,0,0,0,0,0,0,0,0,0,0,0,0],"sum_hessian":[8.369642E3,6.9004194E3,1.4692223E3,1.6660721E3,5.234347E3,2.1621504E1,1.4476008E3,4.1920755E2,1.2468646E3,8.481987E2,4.3861484E3,3.8287916E0,1.7792711E1,2.4850099E2,1.1990999E3,1.4853754E1,4.043538E2,9.376249E2,3.0923975E2,9.939033E1,7.488084E2,2.1393943E3,2.2467542E3,1.21784935E1,5.6142173E0,1.1502217E1,2.3699878E2,1.1614166E3,3.768327E1],"tree_param":{"num_deleted":"0","num_feature":"22","num_nodes":"29","size_leaf_vector":"1"}},{"base_weights":[-3.1028273E-2,-1.9257702E-1,5.962065E-1,-4.2017517E-3,-4.8142323E-1,6.6143274E-1,-8.148893E-1,-9.004616E-2,1.6533101E-2,-3.695946E-1,-1.0168328E0,1.064714E0,5.357504E-1,9.8275816E-1,-1.1616799E0,3.0714927E-2,-2.102224E-3,2.1023508E-2,-2.2976216E-2,-5.301776E-2,8.5672684E-2,-8.160139E-2,5.448383E-2,1.7793892E-2,5.282695E-2,-4.218282E-2,6.351688E-2,-7.42261E-2,-3.5597512E-3],"categories":[],"categories_nodes":[],"categories_segments":[],"categories_sizes":[],"default_left":[1,0,1,0,1,0,1,0,1,0,0,0,0,0,0,0,0,0,0,0,0,0,0,0,0,0,0,0,0],"id":22,"left_children":[1,3,5,7,9,11,13,-1,15,17,19,21,23,25,27,-1,-1,-1,-1,-1,-1,-1,-1,-1,-1,-1,-1,-1,-1],"loss_changes":[8.2810474E2,3.5359183E2,1.5459521E2,1.4660278E2,1.5321161E2,8.05459E1,4.752229E1,0E0,1.3625241E2,1.510712E2,5.441449E1,2.7308044E1,1.14109406E2,7.675659E0,2.2012283E1,0E0,0E0,0E0,0E0,0E0,0E0,0E0,0E0,0E0,0E0,0E0,0E0,0E0,0E0],"parents":[2147483647,0,0,1,1,2,2,3,3,4,4,5,5,6,6,8,8,9,9,10,10,11,11,12,12,13,13,14,14],"right_children":[2,4,6,8,10,12,14,-1,16,18,20,22,24,26,28,-1,-1,-1,-1,-1,-1,-1,-1,-1,-1,-1,-1,-1,-1],"split_conditions":[1E0,7.5E1,8E1,2.75741E5,9.1E1,4E1,9.78E1,-9.004616E-2,9.788E1,7E1,1E2,1.535907E6,1.5E1,3E0,1.4879408E7,3.0714927E-2,-2.102224E-3,2.1023508E-2,-2.2976216E-2,-5.301776E-2,8.5672684E-2,-8.160139E-2,5.448383E-2,1.7793892E-2,5.282695E-2,-4.218282E-2,6.351688E-2,-7.42261E-2,-3.5597512E-3],"split_indices":[5,2,2,3,2,2,9,0,9,6,9,3,5,5,3,0,0,0,0,0,0,0,0,0,0,0,0,0,0],"split_type":[0,0,0,0,0,0,0,0,0,0,0,0,0,0,0,0,0,0,0,0,0,0,0,0,0,0,0,0,0],"sum_hessian":[8.170303E3,6.4975156E3,1.672788E3,3.933343E3,2.5641724E3,1.5993893E3,7.339861E1,4.389492E1,3.889448E3,2.1225376E3,4.4163474E2,3.7824155E2,1.2211478E3,1.1573187E1,6.1825428E1,3.4628043E2,3.5431677E3,2.1653392E2,1.9060037E3,4.353073E2,6.327421E0,2.8786514E0,3.7536288E2,9.08908E2,3.1223978E2,1.3113251E0,1.0261862E1,4.7424026E1,1.4401402E1],"tree_param":{"num_deleted":"0","num_feature":"22","num_nodes":"29","size_leaf_vector":"1"}},{"base_weights":[4.94994E-3,6.199133E-1,-1.5560593E-1,-6.423631E-2,6.6672635E-1,1.7351435E-1,-3.002911E-1,7.1052146E-1,-5.4251033E-1,2.83763E-1,-6.3607603E-1,2.3888873E-1,-3.990455E-1,5.2810133E-2,3.0308131E-2,1.1198786E-2,-7.8721054E-2,1.0557443E-1,1.2445747E-2,-4.6256963E-2,3.8347024E-2,-5.986889E-2,2.2043314E-2,-5.7336032E-2,-1.44480495E-2],"categories":[],"categories_nodes":[],"categories_segments":[],"categories_sizes":[],"default_left":[0,0,0,0,1,0,0,0,0,0,1,0,0,0,0,0,0,0,0,0,0,0,0,0,0],"id":23,"left_children":[1,3,5,-1,7,9,11,13,15,17,19,21,23,-1,-1,-1,-1,-1,-1,-1,-1,-1,-1,-1,-1],"loss_changes":[8.162095E2,1.5345123E2,3.1220203E2,0E0,8.8881226E1,1.7890521E2,2.4256876E2,5.7550842E1,4.6996193E1,1.11769135E2,9.816832E1,2.052091E2,3.1648914E2,0E0,0E0,0E0,0E0,0E0,0E0,0E0,0E0,0E0,0E0,0E0,0E0],"parents":[2147483647,0,0,1,1,2,2,4,4,5,5,6,6,7,7,8,8,9,9,10,10,11,11,12,12],"right_children":[2,4,6,-1,8,10,12,14,16,18,20,22,24,-1,-1,-1,-1,-1,-1,-1,-1,-1,-1,-1,-1],"split_conditions":[1E0,2.0000047E11,5.8E1,-6.423631E-2,8E1,9.8E1,9.806E1,4E1,1.8045853E9,7E0,4.4E1,2.0003447E11,1.9E1,5.2810133E-2,3.0308131E-2,1.1198786E-2,-7.8721054E-2,1.0557443E-1,1.2445747E-2,-4.6256963E-2,3.8347024E-2,-5.986889E-2,2.2043314E-2,-5.7336032E-2,-1.44480495E-2],"split_indices":[18,4,2,0,2,6,9,2,0,7,7,4,7,0,0,0,0,0,0,0,0,0,0,0,0],"split_type":[0,0,0,0,0,0,0,0,0,0,0,0,0,0,0,0,0,0,0,0,0,0,0,0,0],"sum_hessian":[8.26461E3,1.7104313E3,6.554179E3,4.03969E1,1.6700344E3,2.0013777E3,4.5528013E3,1.6120625E3,5.7971928E1,1.7620713E3,2.393064E2,7.045697E2,3.8482317E3,3.7170282E2,1.2403596E3,3.3713245E1,2.4258684E1,3.1852758E1,1.7302186E3,1.9870737E2,4.0599037E1,8.625811E1,6.183116E2,4.9267194E2,3.3555596E3],"tree_param":{"num_deleted":"0","num_feature":"22","num_nodes":"25","size_leaf_vector":"1"}},{"base_weights":[2.0810502E-2,-8.141986E-2,7.629535E-1,-1.9117011E-1,2.1319959E-1,5.962758E-1,1.0216151E0,-2.3712713E-2,-4.2353183E-1,-2.5564426E-1,3.050626E-1,9.358156E-1,4.1512004E-1,-2.5037628E-1,1.0374725E0,-1.33122625E-2,1.8735915E-2,-2.5346443E-2,3.46628E-2,-2.0737246E-2,5.2777093E-2,2.0107338E-2,-9.293164E-3,-5.446757E-2,4.9574103E-2,2.3112627E-2,-1.54954E-1,4.6882667E-2,-1.3637571E-1,3.8761906E-2,5.4513883E-2],"categories":[],"categories_nodes":[],"categories_segments":[],"categories_sizes":[],"default_left":[1,1,0,1,0,0,0,1,0,1,0,0,1,0,0,0,0,0,0,0,0,0,0,0,0,0,0,0,0,0,0],"id":24,"left_children":[1,3,5,7,9,11,13,15,17,19,21,23,25,27,29,-1,-1,-1,-1,-1,-1,-1,-1,-1,-1,-1,-1,-1,-1,-1,-1],"loss_changes":[6.275284E2,2.3511058E2,4.2564575E1,2.061122E2,8.508009E1,3.7217667E1,8.14679E0,2.9769742E2,2.0698767E2,6.800438E1,7.874988E1,2.496965E1,6.776458E1,1.9097229E1,4.5053406E0,0E0,0E0,0E0,0E0,0E0,0E0,0E0,0E0,0E0,0E0,0E0,0E0,0E0,0E0,0E0,0E0],"parents":[2147483647,0,0,1,1,2,2,3,3,4,4,5,5,6,6,7,7,8,8,9,9,10,10,11,11,12,12,13,13,14,14],"right_children":[2,4,6,8,10,12,14,16,18,20,22,24,26,28,30,-1,-1,-1,-1,-1,-1,-1,-1,-1,-1,-1,-1,-1,-1,-1,-1],"split_conditions":[4E0,1.5350879E7,1.4E1,8.9E1,2E1,9.4E1,9.77E1,2.4E1,4.7E1,2E0,2.002364E11,3.4802944E8,9.94E1,7.054273E8,8.3833144E7,-1.33122625E-2,1.8735915E-2,-2.5346443E-2,3.46628E-2,-2.0737246E-2,5.2777093E-2,2.0107338E-2,-9.293164E-3,-5.446757E-2,4.9574103E-2,2.3112627E-2,-1.54954E-1,4.6882667E-2,-1.3637571E-1,3.8761906E-2,5.4513883E-2],"split_indices":[5,3,5,6,7,6,9,7,7,5,4,0,9,0,0,0,0,0,0,0,0,0,0,0,0,0,0,0,0,0,0],"split_type":[0,0,0,0,0,0,0,0,0,0,0,0,0,0,0,0,0,0,0,0,0,0,0,0,0,0,0,0,0,0,0],"sum_hessian":[8.26933E3,7.268925E3,1.00040576E3,5.296317E3,1.9726078E3,6.1038684E2,3.900189E2,3.0786855E3,2.2176313E3,3.2288864E2,1.6497192E3,2.1091106E2,3.994758E2,4.6202025E0,3.8539868E2,1.9139559E3,1.1647296E3,2.0640432E3,1.5358804E2,2.8855838E2,3.433028E1,1.3774911E3,2.722281E2,5.1455293E0,2.0576552E2,3.950459E2,4.4298997E0,3.5426385E0,1.0775642E0,6.722677E1,3.181719E2],"tree_param":{"num_deleted":"0","num_feature":"22","num_nodes":"31","size_leaf_vector":"1"}},{"base_weights":[2.2049977E-2,5.664954E-1,-1.13962576E-1,4.2779073E-1,1.017152E0,-2.1994378E-1,2.2586177E-1,-1.2566602E-1,4.485483E-1,8.3322054E-1,5.6197483E-2,-9.638376E-1,-1.20932065E-1,-8.092976E-1,3.4089372E-1,-4.1304756E-2,2.4785671E-2,5.3789724E-2,3.221281E-2,-2.8364647E-2,-6.9179714E-2,1.4273785E-2,-1.0458562E-2,-8.0222495E-2,-1.9407317E-2,-1.1032503E-3,2.9559372E-2],"categories":[],"categories_nodes":[],"categories_segments":[],"categories_sizes":[],"default_left":[0,0,1,0,0,0,0,0,0,0,0,0,0,0,0,0,0,0,0,0,0,0,0,0,0,0,0],"id":25,"left_children":[1,3,5,7,9,11,13,-1,15,17,-1,19,21,23,25,-1,-1,-1,-1,-1,-1,-1,-1,-1,-1,-1,-1],"loss_changes":[6.0962494E2,1.0242383E2,2.3728244E2,7.804964E1,6.656555E0,3.6974713E2,1.8680093E2,0E0,7.567819E1,5.9928665E0,0E0,9.737537E1,1.5902841E2,5.193889E1,1.281494E2,0E0,0E0,0E0,0E0,0E0,0E0,0E0,0E0,0E0,0E0,0E0,0E0],"parents":[2147483647,0,0,1,1,2,2,3,3,4,4,5,5,6,6,8,8,9,9,11,11,12,12,13,13,14,14],"right_children":[2,4,6,8,10,12,14,-1,16,18,-1,20,22,24,26,-1,-1,-1,-1,-1,-1,-1,-1,-1,-1,-1,-1],"split_conditions":[1E0,1.4E1,9.94E1,9E0,2.4E1,2.0000625E11,1.604273E6,-1.2566602E-1,2.0000047E11,1E2,5.6197483E-2,1.0865462E8,1.663856E6,2.000681E11,2.5E1,-4.1304756E-2,2.4785671E-2,5.3789724E-2,3.221281E-2,-2.8364647E-2,-6.9179714E-2,1.4273785E-2,-1.0458562E-2,-8.0222495E-2,-1.9407317E-2,-1.1032503E-3,2.9559372E-2],"split_indices":[18,5,9,7,5,4,3,0,4,8,0,4,3,4,7,0,0,0,0,0,0,0,0,0,0,0,0],"split_type":[0,0,0,0,0,0,0,0,0,0,0,0,0,0,0,0,0,0,0,0,0,0,0,0,0,0,0],"sum_hessian":[8.230583E3,1.6445278E3,6.586055E3,1.2589828E3,3.8554495E2,5.0206235E3,1.5654318E3,7.981731E0,1.2510011E3,1.4486105E2,2.4068391E2,5.887204E2,4.431903E3,1.55957E2,1.4094747E3,4.4049263E1,1.2069519E3,6.1377506E1,8.348354E1,3.0393964E2,2.8478076E2,7.902004E2,3.6417026E3,5.302804E1,1.0292896E2,5.756371E2,8.3383765E2],"tree_param":{"num_deleted":"0","num_feature":"22","num_nodes":"27","size_leaf_vector":"1"}},{"base_weights":[7.5218864E-3,5.572616E-1,-1.3286267E-1,6.2032247E-1,-8.132985E-1,-7.3867634E-2,-8.6564076E-1,1.029801E0,4.897126E-1,-1.1174457E0,6.843124E-1,-3.1676403E-1,1.04350515E-1,5.675536E-1,-9.4317067E-1,-7.48784E-2,5.2055568E-2,2.8367048E-2,-3.8153376E-2,-7.1642324E-2,-2.3563873E-2,5.5530276E-2,-5.723622E-2,6.834822E-2,-1.7571313E-2,-3.2905121E-3,2.3135746E-2,-5.9648585E-2,1.0676769E-1,-4.9380794E-2,5.3179767E-2],"categories":[],"categories_nodes":[],"categories_segments":[],"categories_sizes":[],"default_left":[0,1,1,0,0,1,0,0,1,0,0,0,0,0,0,0,0,0,0,0,0,0,0,0,0,0,0,0,0,0,0],"id":26,"left_children":[1,3,5,7,9,11,13,15,17,19,21,23,25,27,29,-1,-1,-1,-1,-1,-1,-1,-1,-1,-1,-1,-1,-1,-1,-1,-1],"loss_changes":[6.296694E2,1.4394946E2,2.80904E2,8.438519E1,3.4215153E1,2.6046384E2,5.433429E1,1.2505676E1,1.17651245E2,1.1842407E1,1.14207E1,1.4908836E2,2.1168062E2,7.28537E1,4.2051605E1,0E0,0E0,0E0,0E0,0E0,0E0,0E0,0E0,0E0,0E0,0E0,0E0,0E0,0E0,0E0,0E0],"parents":[2147483647,0,0,1,1,2,2,3,3,4,4,5,5,6,6,7,7,8,8,9,9,10,10,11,11,12,12,13,13,14,14],"right_children":[2,4,6,8,10,12,14,16,18,20,22,24,26,28,30,-1,-1,-1,-1,-1,-1,-1,-1,-1,-1,-1,-1,-1,-1,-1,-1],"split_conditions":[1E0,8E1,9E1,4E1,5E0,2.2E1,8.2114616E7,7.46035E5,9.4E1,6.024842E6,3.126327E6,8.210324E7,2.0019855E11,6.077303E6,5.3E1,-7.48784E-2,5.2055568E-2,2.8367048E-2,-3.8153376E-2,-7.1642324E-2,-2.3563873E-2,5.5530276E-2,-5.723622E-2,6.834822E-2,-1.7571313E-2,-3.2905121E-3,2.3135746E-2,-5.9648585E-2,1.0676769E-1,-4.9380794E-2,5.3179767E-2],"split_indices":[18,2,2,2,5,7,0,3,6,3,3,0,4,3,7,0,0,0,0,0,0,0,0,0,0,0,0,0,0,0,0],"split_type":[0,0,0,0,0,0,0,0,0,0,0,0,0,0,0,0,0,0,0,0,0,0,0,0,0,0,0,0,0,0,0],"sum_hessian":[8.157024E3,1.6586917E3,6.4983325E3,1.5862539E3,7.243777E1,6.01516E3,4.831722E2,3.819398E2,1.2043141E3,6.0420853E1,1.2016916E1,2.5453223E3,3.469838E3,2.447189E1,4.5870032E2,1.1161764E0,3.808236E2,1.1345585E3,6.975564E1,3.9784313E1,2.0636541E1,1.0064077E1,1.9528395E0,5.0567245E1,2.494755E3,2.3532634E3,1.1165745E3,1.1640045E1,1.2831843E1,4.4925815E2,9.442168E0],"tree_param":{"num_deleted":"0","num_feature":"22","num_nodes":"31","size_leaf_vector":"1"}},{"base_weights":[2.3212906E-2,3.3856943E-1,-2.1063739E-1,2.0736654E-1,7.268299E-1,5.564442E-1,-3.0887875E-1,5.168028E-1,5.4307133E-2,5.443025E-1,9.945663E-1,-1.2016109E0,7.3439074E-1,-4.9729052E-1,1.5845487E-1,1.7333655E-2,4.879372E-2,-7.7858614E-3,1.2312121E-2,4.8420046E-2,1.810596E-2,4.0667042E-2,5.5273663E-2,-7.3386304E-2,5.484731E-2,-8.170139E-2,4.1314773E-2,2.6235497E-2,-2.8447015E-2,3.6227267E-2,-5.47526E-3],"categories":[],"categories_nodes":[],"categories_segments":[],"categories_sizes":[],"default_left":[1,1,1,0,0,0,0,0,1,0,0,1,1,0,0,0,0,0,0,0,0,0,0,0,0,0,0,0,0,0,0],"id":27,"left_children":[1,3,5,7,9,11,13,15,17,19,21,23,25,27,29,-1,-1,-1,-1,-1,-1,-1,-1,-1,-1,-1,-1,-1,-1,-1,-1],"loss_changes":[6.0527496E2,1.7787302E2,3.5532886E2,1.23749954E2,4.2574707E1,1.6838136E2,3.679957E2,6.720247E1,7.056896E1,4.0353943E1,6.265167E0,3.1944267E1,1.07316315E2,2.1837427E2,1.823084E2,0E0,0E0,0E0,0E0,0E0,0E0,0E0,0E0,0E0,0E0,0E0,0E0,0E0,0E0,0E0,0E0],"parents":[2147483647,0,0,1,1,2,2,3,3,4,4,5,5,6,6,7,7,8,8,9,9,10,10,11,11,12,12,13,13,14,14],"right_children":[2,4,6,8,10,12,14,16,18,20,22,24,26,28,30,-1,-1,-1,-1,-1,-1,-1,-1,-1,-1,-1,-1,-1,-1,-1,-1],"split_conditions":[5.7E1,4E0,9.788E1,1E0,1.4E1,9.590614E8,2.0020548E11,9.95E1,2.000755E11,4E1,2.4E1,5E0,9.7E1,8.211829E7,1.0365714E10,1.7333655E-2,4.879372E-2,-7.7858614E-3,1.2312121E-2,4.8420046E-2,1.810596E-2,4.0667042E-2,5.5273663E-2,-7.3386304E-2,5.484731E-2,-8.170139E-2,4.1314773E-2,2.6235497E-2,-2.8447015E-2,3.6227267E-2,-5.47526E-3],"split_indices":[2,5,9,1,5,0,4,9,4,2,5,5,8,0,0,0,0,0,0,0,0,0,0,0,0,0,0,0,0,0,0],"split_type":[0,0,0,0,0,0,0,0,0,0,0,0,0,0,0,0,0,0,0,0,0,0,0,0,0,0,0,0,0,0,0],"sum_hessian":[8.205571E3,3.4937122E3,4.711859E3,2.6124382E3,8.81274E2,5.344145E2,4.1774443E3,8.6377997E2,1.7486582E3,5.2582776E2,3.554462E2,4.8591644E1,4.8582285E2,2.9771162E3,1.2003284E3,6.315031E2,2.3227686E2,8.3507245E2,9.1358575E2,1.5671075E2,3.6911703E2,1.3810759E2,2.1733861E2,4.387364E1,4.7180057E0,1.7520983E1,4.6830188E2,1.9462946E2,2.7824868E3,3.8508875E2,8.1523956E2],"tree_param":{"num_deleted":"0","num_feature":"22","num_nodes":"31","size_leaf_vector":"1"}},{"base_weights":[5.136755E-2,-3.4729768E-2,7.073209E-1,2.6506282E-2,-8.7448156E-1,6.044716E-1,5.363501E-2,-3.2514358E-1,1.0879801E-1,-1.0246825E0,5.522968E-1,1.0004092E0,4.5754498E-1,3.5913523E-2,-2.5033249E-2,-1.4732935E-2,9.65936E-3,-5.3567182E-2,4.4195946E-2,1.0432517E-1,-3.0269975E-2,-5.543933E-2,5.3970307E-2,2.419403E-2,-1.3292412E-1],"categories":[],"categories_nodes":[],"categories_segments":[],"categories_sizes":[],"default_left":[1,1,0,0,0,0,0,0,1,0,0,0,1,0,0,0,0,0,0,0,0,0,0,0,0],"id":28,"left_children":[1,3,5,7,9,11,-1,13,15,17,19,21,23,-1,-1,-1,-1,-1,-1,-1,-1,-1,-1,-1,-1],"loss_changes":[4.6251633E2,3.7232578E2,3.505945E1,1.9533395E2,1.06024445E2,4.281079E1,0E0,2.3479825E2,1.8628914E2,4.0628998E1,8.566596E1,3.4597733E1,4.5954506E1,0E0,0E0,0E0,0E0,0E0,0E0,0E0,0E0,0E0,0E0,0E0,0E0],"parents":[2147483647,0,0,1,1,2,2,3,3,4,4,5,5,7,7,8,8,9,9,10,10,11,11,12,12],"right_children":[2,4,6,8,10,12,-1,14,16,18,20,22,24,-1,-1,-1,-1,-1,-1,-1,-1,-1,-1,-1,-1],"split_conditions":[4E0,9E1,2.4E1,5.154673E8,9.98E1,4E1,5.363501E-2,8.210751E7,2E1,5.4E1,8.232364E7,2.5E1,4.1E1,3.5913523E-2,-2.5033249E-2,-1.4732935E-2,9.65936E-3,-5.3567182E-2,4.4195946E-2,1.0432517E-1,-3.0269975E-2,-5.543933E-2,5.3970307E-2,2.419403E-2,-1.3292412E-1],"split_indices":[5,2,5,0,9,2,0,0,7,7,0,2,7,0,0,0,0,0,0,0,0,0,0,0,0],"split_type":[0,0,0,0,0,0,0,0,0,0,0,0,0,0,0,0,0,0,0,0,0,0,0,0,0],"sum_hessian":[8.188198E3,7.2389897E3,9.492083E2,6.747891E3,4.9109866E2,7.427801E2,2.0642818E2,1.2790957E3,5.4687954E3,4.4457843E2,4.6520218E1,1.9946185E2,5.4331824E2,1.8373895E2,1.0953567E3,9.455792E2,4.5232163E3,4.3439706E2,1.018137E1,1.9661736E1,2.6858484E1,6.7302413E0,1.9273161E2,5.396024E2,3.7158246E0],"tree_param":{"num_deleted":"0","num_feature":"22","num_nodes":"25","size_leaf_vector":"1"}},{"base_weights":[-1.6034326E-2,2.333221E-1,-2.8202543E-1,1.2958902E-1,7.798451E-1,-1.9417134E-1,-1.0205817E0,4.0334883E-1,-1.7691493E-2,7.921173E-1,-1.21594384E-1,3.6188385E-1,-3.1034106E-1,-1.14531E0,2.6124287E-1,-5.1964666E-3,3.285378E-2,-7.214711E-3,2.103344E-2,3.2993007E-2,5.385959E-2,2.413389E-2,-6.2350005E-2,-4.884423E-2,-9.585334E-3,-3.0839298E-2,-6.37791E-2,9.5304444E-2,-3.5546806E-2],"categories":[],"categories_nodes":[],"categories_segments":[],"categories_sizes":[],"default_left":[1,1,0,0,1,0,0,0,1,0,0,0,1,0,0,0,0,0,0,0,0,0,0,0,0,0,0,0,0],"id":29,"left_children":[1,3,5,7,9,11,13,15,17,19,-1,21,23,25,27,-1,-1,-1,-1,-1,-1,-1,-1,-1,-1,-1,-1,-1,-1],"loss_changes":[5.270215E2,2.3240651E2,2.4926334E2,1.3903487E2,2.770575E1,2.2214285E2,6.560739E1,1.5531972E2,1.2453858E2,2.3883514E1,0E0,1.1612998E2,2.2468015E2,2.4856934E1,6.058067E1,0E0,0E0,0E0,0E0,0E0,0E0,0E0,0E0,0E0,0E0,0E0,0E0,0E0,0E0],"parents":[2147483647,0,0,1,1,2,2,3,3,4,4,5,5,6,6,7,7,8,8,9,9,11,11,12,12,13,13,14,14],"right_children":[2,4,6,8,10,12,14,16,18,20,-1,22,24,26,28,-1,-1,-1,-1,-1,-1,-1,-1,-1,-1,-1,-1,-1,-1],"split_conditions":[6.4E1,5E0,9.1E1,4.2E1,9.99E1,9.806E1,9.98E1,6.452409E6,9.94E1,2.4E1,-1.21594384E-1,1.7070108E7,2E1,9.82E1,8.2114616E7,-5.1964666E-3,3.285378E-2,-7.214711E-3,2.103344E-2,3.2993007E-2,5.385959E-2,2.413389E-2,-6.2350005E-2,-4.884423E-2,-9.585334E-3,-3.0839298E-2,-6.37791E-2,9.5304444E-2,-3.5546806E-2],"split_indices":[2,5,2,2,9,9,9,3,9,5,0,3,7,9,0,0,0,0,0,0,0,0,0,0,0,0,0,0,0],"split_type":[0,0,0,0,0,0,0,0,0,0,0,0,0,0,0,0,0,0,0,0,0,0,0,0,0,0,0,0,0],"sum_hessian":[7.943864E3,4.1002036E3,3.8436604E3,3.447152E3,6.5305133E2,3.436177E3,4.0748337E2,1.2052106E3,2.2419414E3,6.51316E2,1.7353394E0,5.934532E2,2.8427239E3,3.7144623E2,3.6037163E1,4.0202625E2,8.031843E2,1.7400647E3,5.018768E2,4.471708E2,2.0414519E2,5.5265985E2,4.0793346E1,4.2842078E2,2.414303E3,7.458467E1,2.9686154E2,1.3030316E1,2.3006847E1],"tree_param":{"num_deleted":"0","num_feature":"22","num_nodes":"29","size_leaf_vector":"1"}},{"base_weights":[3.8903174E-3,-2.318291E-1,2.673726E-1,4.2593375E-1,-3.04612E-1,6.00957E-1,1.2060999E-1,-8.2192487E-1,6.39333E-1,-1.4067946E-1,-5.5309063E-1,5.05245E-1,5.392849E-2,-4.711769E-1,2.0998174E-1,-7.299309E-2,5.7980247E-2,-5.0436906E-3,4.2040166E-2,6.168322E-2,-1.1004219E-2,-4.0028375E-2,-8.373487E-3,4.3503076E-2,1.4876333E-2,4.1816175E-2,-4.7379427E-2,-1.0757523E-1,1.1452405E-2],"categories":[],"categories_nodes":[],"categories_segments":[],"categories_sizes":[],"default_left":[0,1,0,0,0,0,0,1,1,0,0,0,0,0,0,0,0,0,0,0,0,0,0,0,0,0,0,0,0],"id":30,"left_children":[1,3,5,7,9,11,13,15,17,19,21,23,-1,25,27,-1,-1,-1,-1,-1,-1,-1,-1,-1,-1,-1,-1,-1,-1],"loss_changes":[4.9562265E2,2.0177098E2,1.844053E2,1.1237966E2,1.5442044E2,5.207263E1,1.3856607E2,7.978816E1,5.3661636E1,2.4980307E2,1.4371295E2,7.254666E1,0E0,2.1495663E2,1.0293607E2,0E0,0E0,0E0,0E0,0E0,0E0,0E0,0E0,0E0,0E0,0E0,0E0,0E0,0E0],"parents":[2147483647,0,0,1,1,2,2,3,3,4,4,5,5,6,6,7,7,8,8,9,9,10,10,11,11,13,13,14,14],"right_children":[2,4,6,8,10,12,14,16,18,20,22,24,-1,26,28,-1,-1,-1,-1,-1,-1,-1,-1,-1,-1,-1,-1,-1,-1],"split_conditions":[6.452409E6,9.788E1,1.09E2,9.754061E8,4.543976E6,2.4E1,2E1,5E0,2E1,8.210751E7,2.6E1,9.4E1,5.392849E-2,1.4E1,9.75E1,-7.299309E-2,5.7980247E-2,-5.0436906E-3,4.2040166E-2,6.168322E-2,-1.1004219E-2,-4.0028375E-2,-8.373487E-3,4.3503076E-2,1.4876333E-2,4.1816175E-2,-4.7379427E-2,-1.0757523E-1,1.1452405E-2],"split_indices":[3,9,5,0,3,5,7,5,7,0,7,6,0,7,9,0,0,0,0,0,0,0,0,0,0,0,0,0,0],"split_type":[0,0,0,0,0,0,0,0,0,0,0,0,0,0,0,0,0,0,0,0,0,0,0,0,0,0,0,0,0],"sum_hessian":[7.9780293E3,4.2109253E3,3.7671042E3,4.190432E2,3.791882E3,1.150035E3,2.617069E3,6.077981E1,3.582634E2,2.2855608E3,1.5063214E3,9.597602E2,1.9027483E2,3.428133E2,2.2742559E3,4.617683E1,1.4602978E1,7.67567E1,2.815067E2,1.2404514E2,2.1615156E3,9.1684753E2,5.894739E2,3.4704865E2,6.1271155E2,9.1349976E1,2.5146332E2,1.7319233E1,2.2569365E3],"tree_param":{"num_deleted":"0","num_feature":"22","num_nodes":"29","size_leaf_vector":"1"}},{"base_weights":[1.1848341E-2,-7.116814E-2,6.640009E-1,-4.85423E-1,-5.9387283E-3,5.598866E-1,1.048963E0,-1.3444415E-2,-1.1469305E0,7.935595E-2,-3.0766964E-1,-1.6174415E0,5.818754E-1,6.7360705E-1,5.325696E-2,-2.6864579E-2,4.231423E-2,5.397752E-2,-6.637656E-2,-1.55984005E-2,7.950857E-3,-2.6826937E-2,7.0967986E-3,-5.3099897E-2,-1.2068349E-1,5.5330038E-2,2.4612838E-2,4.999715E-2,2.661844E-4],"categories":[],"categories_nodes":[],"categories_segments":[],"categories_sizes":[],"default_left":[1,0,0,0,1,0,0,0,0,0,0,0,0,0,0,0,0,0,0,0,0,0,0,0,0,0,0,0,0],"id":31,"left_children":[1,3,5,7,9,11,13,15,17,19,21,23,25,27,-1,-1,-1,-1,-1,-1,-1,-1,-1,-1,-1,-1,-1,-1,-1],"loss_changes":[4.3007986E2,1.9041888E2,3.536612E1,2.992979E2,1.5674017E2,3.4848724E1,4.3504333E-1,2.5288327E2,1.619425E2,1.4806506E2,1.381904E2,6.852684E-1,3.246118E1,2.2982512E0,0E0,0E0,0E0,0E0,0E0,0E0,0E0,0E0,0E0,0E0,0E0,0E0,0E0,0E0,0E0],"parents":[2147483647,0,0,1,1,2,2,3,3,4,4,5,5,6,6,7,7,8,8,9,9,10,10,11,11,12,12,13,13],"right_children":[2,4,6,8,10,12,14,16,18,20,22,24,26,28,-1,-1,-1,-1,-1,-1,-1,-1,-1,-1,-1,-1,-1,-1,-1],"split_conditions":[4E0,2.0000625E11,2.4E1,8.267811E7,9.5E1,8.329042E7,8.36597E7,9.96E1,2.5154022E7,2E1,9.231349E9,8.303642E7,7.7E1,1E0,5.325696E-2,-2.6864579E-2,4.231423E-2,5.397752E-2,-6.637656E-2,-1.55984005E-2,7.950857E-3,-2.6826937E-2,7.0967986E-3,-5.3099897E-2,-1.2068349E-1,5.5330038E-2,2.4612838E-2,4.999715E-2,2.661844E-4],"split_indices":[5,4,5,0,6,0,0,9,4,7,0,0,6,10,0,0,0,0,0,0,0,0,0,0,0,0,0,0,0],"split_type":[0,0,0,0,0,0,0,0,0,0,0,0,0,0,0,0,0,0,0,0,0,0,0,0,0,0,0,0,0],"sum_hessian":[7.9420596E3,7.04602E3,8.960399E2,9.576697E2,6.08835E3,7.072232E2,1.8881673E2,5.594957E2,3.9817395E2,4.747143E3,1.341207E3,6.345412E0,7.008778E2,9.562743E0,1.7925398E2,3.478935E2,2.1160223E2,2.9501093E1,3.6867288E2,8.0242615E2,3.9447168E3,8.886511E2,4.5255597E2,5.112648E0,1.2327636E0,1.00586525E2,6.0029126E2,6.0917406E0,3.4710028E0],"tree_param":{"num_deleted":"0","num_feature":"22","num_nodes":"29","size_leaf_vector":"1"}},{"base_weights":[2.380037E-2,2.84789E-1,-1.6285807E-1,5.628182E-1,1.4688964E-1,-8.5628666E-2,-8.639473E-1,3.863683E-1,8.393146E-1,2.955954E-1,-2.9558703E-1,-6.041205E-1,1.1184093E-2,-9.4481033E-1,1.1966718E0,8.064094E-3,4.4506934E-2,4.3580648E-2,-1.08508304E-1,1.0303563E-1,1.2989272E-2,1.8002404E-2,-3.6148768E-2,-5.678823E-4,-4.1877348E-2,-9.363227E-3,1.6533311E-2,-4.96669E-2,5.617265E-2,9.806203E-2,-5.864538E-2],"categories":[],"categories_nodes":[],"categories_segments":[],"categories_sizes":[],"default_left":[1,0,0,1,0,1,0,0,0,0,0,0,0,1,1,0,0,0,0,0,0,0,0,0,0,0,0,0,0,0,0],"id":32,"left_children":[1,3,5,7,9,11,13,15,17,19,21,23,25,27,29,-1,-1,-1,-1,-1,-1,-1,-1,-1,-1,-1,-1,-1,-1,-1,-1],"loss_changes":[3.8727774E2,1.27007996E2,2.5088496E2,5.3277008E1,1.4597414E2,2.0963635E2,7.774603E1,7.611485E1,4.341031E1,1.0438858E2,1.5667517E2,9.091135E1,2.2323697E2,4.5578583E1,3.4554817E1,0E0,0E0,0E0,0E0,0E0,0E0,0E0,0E0,0E0,0E0,0E0,0E0,0E0,0E0,0E0,0E0],"parents":[2147483647,0,0,1,1,2,2,3,3,4,4,5,5,6,6,7,7,8,8,9,9,10,10,11,11,12,12,13,13,14,14],"right_children":[2,4,6,8,10,12,14,16,18,20,22,24,26,28,30,-1,-1,-1,-1,-1,-1,-1,-1,-1,-1,-1,-1,-1,-1,-1,-1],"split_conditions":[5.7E1,1E0,9E1,1.9E1,9.8E1,2E1,5.4E1,1.5E1,5.4E1,7E0,8.3833144E7,7.5E1,7.4365486E9,5E0,5.5E1,8.064094E-3,4.4506934E-2,4.3580648E-2,-1.08508304E-1,1.0303563E-1,1.2989272E-2,1.8002404E-2,-3.6148768E-2,-5.678823E-4,-4.1877348E-2,-9.363227E-3,1.6533311E-2,-4.96669E-2,5.617265E-2,9.806203E-2,-5.864538E-2],"split_indices":[2,18,2,7,6,7,7,5,2,7,0,6,0,5,7,0,0,0,0,0,0,0,0,0,0,0,0,0,0,0,0],"split_type":[0,0,0,0,0,0,0,0,0,0,0,0,0,0,0,0,0,0,0,0,0,0,0,0,0,0,0,0,0,0,0],"sum_hessian":[7.947795E3,3.313827E3,4.633968E3,1.0976636E3,2.2161633E3,4.175169E3,4.5879913E2,6.715208E2,4.261428E2,1.6589591E3,5.572043E2,6.561015E2,3.5190674E3,4.419958E2,1.6803358E1,4.650534E2,2.0646739E2,4.2232074E2,3.8220456E0,3.1862661E1,1.6270964E3,2.1994904E2,3.3725528E2,1.8566716E2,4.704344E2,2.1709685E3,1.3480988E3,4.323708E2,9.624996E0,1.2834501E1,3.9688566E0],"tree_param":{"num_deleted":"0","num_feature":"22","num_nodes":"31","size_leaf_vector":"1"}},{"base_weights":[-3.2712914E-2,-1.4746775E-1,4.532038E-1,-1.5190863E-2,-4.3967885E-1,5.0806403E-1,-7.1564746E-1,4.445658E-2,-5.790471E-1,-1.4547913E-1,-7.245054E-1,8.909769E-1,3.9921188E-1,8.9239126E-1,-1.031886E0,-8.567577E-2,3.2089415E-3,-4.359901E-2,3.4180462E-2,-2.0117907E-2,9.48699E-3,-4.198332E-2,3.2550395E-2,-8.656847E-2,4.5959897E-2,1.3777911E-2,4.403929E-2,-3.9163522E-2,5.9497964E-2,-6.865146E-2,4.343106E-3],"categories":[],"categories_nodes":[],"categories_segments":[],"categories_sizes":[],"default_left":[1,0,1,0,1,0,1,0,0,1,0,0,0,0,0,0,0,0,0,0,0,0,0,0,0,0,0,0,0,0,0],"id":33,"left_children":[1,3,5,7,9,11,13,15,17,19,21,23,25,27,29,-1,-1,-1,-1,-1,-1,-1,-1,-1,-1,-1,-1,-1,-1,-1,-1],"loss_changes":[4.3011212E2,2.4117224E2,9.4857635E1,1.4452145E2,1.6282114E2,5.833716E1,3.4727196E1,1.348499E2,1.526426E2,8.254263E1,1.5699573E2,2.4598343E1,6.515726E1,6.6470623E0,2.1498653E1,0E0,0E0,0E0,0E0,0E0,0E0,0E0,0E0,0E0,0E0,0E0,0E0,0E0,0E0,0E0,0E0],"parents":[2147483647,0,0,1,1,2,2,3,3,4,4,5,5,6,6,7,7,8,8,9,9,10,10,11,11,12,12,13,13,14,14],"right_children":[2,4,6,8,10,12,14,16,18,20,22,24,26,28,30,-1,-1,-1,-1,-1,-1,-1,-1,-1,-1,-1,-1,-1,-1,-1,-1],"split_conditions":[1E0,7.8E1,8E1,1E0,8.3E1,4E1,9.78E1,2.75741E5,9.986E1,9.9E1,9.99E1,1.535907E6,1.5E1,3E0,1.4879408E7,-8.567577E-2,3.2089415E-3,-4.359901E-2,3.4180462E-2,-2.0117907E-2,9.48699E-3,-4.198332E-2,3.2550395E-2,-8.656847E-2,4.5959897E-2,1.3777911E-2,4.403929E-2,-3.9163522E-2,5.9497964E-2,-6.865146E-2,4.343106E-3],"split_indices":[5,2,2,21,6,2,9,3,9,8,9,3,5,5,3,0,0,0,0,0,0,0,0,0,0,0,0,0,0,0,0],"split_type":[0,0,0,0,0,0,0,0,0,0,0,0,0,0,0,0,0,0,0,0,0,0,0,0,0,0,0,0,0,0,0],"sum_hessian":[7.7112554E3,6.238628E3,1.4726273E3,4.2953013E3,1.9433268E3,1.407148E3,6.5479385E1,3.8852246E3,4.1007672E2,9.566775E2,9.866493E2,3.0988162E2,1.0972662E3,1.0461565E1,5.5017822E1,4.215099E1,3.8430737E3,3.331063E2,7.6970406E1,5.415139E2,4.151636E2,9.107858E2,7.5863434E1,2.6567993E0,3.0722482E2,8.7433545E2,2.2293085E2,1.3314844E0,9.130081E0,4.1987236E1,1.3030584E1],"tree_param":{"num_deleted":"0","num_feature":"22","num_nodes":"31","size_leaf_vector":"1"}},{"base_weights":[-8.904634E-3,4.5196727E-1,-1.1676571E-1,3.537171E-1,8.7758774E-1,-6.895912E-2,-7.904048E-1,8.384768E-1,2.3950502E-1,-3.4720793E-2,9.0002865E-1,-2.88054E-1,5.88937E-2,-9.1664696E-1,5.013605E-1,6.685597E-3,4.6297014E-2,1.6032806E-2,-2.6833136E-2,2.8524503E-2,4.8888303E-2,1.4275874E-2,-2.216806E-2,1.1095917E-2,-8.720387E-3,-4.8480254E-2,5.028044E-2,1.0036161E-1,-6.2396515E-2],"categories":[],"categories_nodes":[],"categories_segments":[],"categories_sizes":[],"default_left":[0,0,1,0,0,0,0,0,1,0,0,0,0,0,0,0,0,0,0,0,0,0,0,0,0,0,0,0,0],"id":34,"left_children":[1,3,5,7,9,11,13,15,17,-1,19,21,23,25,27,-1,-1,-1,-1,-1,-1,-1,-1,-1,-1,-1,-1,-1,-1],"loss_changes":[3.8439642E2,6.1016052E1,2.0174344E2,6.585922E1,1.030394E1,1.6394347E2,6.815729E1,1.3875717E1,6.1083656E1,0E0,6.383026E0,1.9224374E2,1.4062502E2,3.9508698E1,1.01563515E2,0E0,0E0,0E0,0E0,0E0,0E0,0E0,0E0,0E0,0E0,0E0,0E0,0E0,0E0],"parents":[2147483647,0,0,1,1,2,2,3,3,4,4,5,5,6,6,7,7,8,8,10,10,11,11,12,12,13,13,14,14],"right_children":[2,4,6,8,10,12,14,16,18,-1,20,22,24,26,28,-1,-1,-1,-1,-1,-1,-1,-1,-1,-1,-1,-1,-1,-1],"split_conditions":[1E0,1.4E1,9E1,4E1,9.77E1,2.2E1,9.98E1,2.7E1,9.4E1,-3.4720793E-2,8.3833144E7,7.5E1,9.3E1,5.2E1,8.232364E7,6.685597E-3,4.6297014E-2,1.6032806E-2,-2.6833136E-2,2.8524503E-2,4.8888303E-2,1.4275874E-2,-2.216806E-2,1.1095917E-2,-8.720387E-3,-4.8480254E-2,5.028044E-2,1.0036161E-1,-6.2396515E-2],"split_indices":[18,5,2,2,9,7,9,2,6,0,0,6,6,7,0,0,0,0,0,0,0,0,0,0,0,0,0,0,0],"split_type":[0,0,0,0,0,0,0,0,0,0,0,0,0,0,0,0,0,0,0,0,0,0,0,0,0,0,0,0,0],"sum_hessian":[7.730696E3,1.4655332E3,6.2651626E3,1.1921649E3,2.733682E2,5.851031E3,4.1413162E2,2.2611307E2,9.660519E2,3.4260578E0,2.6994214E2,2.1556868E3,3.695344E3,3.775269E2,3.6604717E1,2.5242496E1,2.0087057E2,8.751398E2,9.09121E1,5.311588E1,2.1682626E2,4.591484E2,1.6965385E3,2.175331E3,1.5200128E3,3.678872E2,9.639693E0,1.9591757E1,1.7012959E1],"tree_param":{"num_deleted":"0","num_feature":"22","num_nodes":"29","size_leaf_vector":"1"}},{"base_weights":[7.6393485E-3,-5.403947E-2,5.474788E-1,-3.403593E-1,3.353034E-2,4.2405954E-1,5.0375666E-2,-6.393266E-1,-6.3300624E-2,-3.9097777E-1,1.1567771E-1,1.5054668E-1,6.735546E-1,-4.3780115E-2,-4.8710126E-3,1.1270674E-2,-4.556496E-2,3.496406E-2,-2.4362182E-2,3.129779E-3,2.9155893E-2,1.3288798E-2,-2.0463598E-1,-5.023265E-2,3.6804926E-2],"categories":[],"categories_nodes":[],"categories_segments":[],"categories_sizes":[],"default_left":[1,0,0,0,0,0,0,0,0,1,0,0,0,0,0,0,0,0,0,0,0,0,0,0,0],"id":35,"left_children":[1,3,5,7,9,11,-1,13,15,17,19,21,23,-1,-1,-1,-1,-1,-1,-1,-1,-1,-1,-1,-1],"loss_changes":[2.5947928E2,1.7537146E2,4.4942017E1,1.3565173E2,1.8684926E2,4.3010864E1,0E0,1.0078702E2,2.086405E2,9.152156E1,1.1134906E2,1.4907687E2,3.538791E1,0E0,0E0,0E0,0E0,0E0,0E0,0E0,0E0,0E0,0E0,0E0,0E0],"parents":[2147483647,0,0,1,1,2,2,3,3,4,4,5,5,7,7,8,8,9,9,10,10,11,11,12,12],"right_children":[2,4,6,8,10,12,-1,14,16,18,20,22,24,-1,-1,-1,-1,-1,-1,-1,-1,-1,-1,-1,-1],"split_conditions":[4E0,7.2186464E8,2.4E1,9.94E1,2E1,8.408255E7,5.0375666E-2,5.154673E8,8.399375E7,9.76E1,4.2E1,8.404505E7,2E1,-4.3780115E-2,-4.8710126E-3,1.1270674E-2,-4.556496E-2,3.496406E-2,-2.4362182E-2,3.129779E-3,2.9155893E-2,1.3288798E-2,-2.0463598E-1,-5.023265E-2,3.6804926E-2],"split_indices":[5,0,5,9,7,0,0,0,0,9,7,0,7,0,0,0,0,0,0,0,0,0,0,0,0],"split_type":[0,0,0,0,0,0,0,0,0,0,0,0,0,0,0,0,0,0,0,0,0,0,0,0,0],"sum_hessian":[7.791064E3,6.992987E3,7.980769E2,1.6371724E3,5.3558145E3,6.3077325E2,1.6730365E2,7.8682306E2,8.503493E2,8.6776373E2,4.488051E3,3.0166818E2,3.291051E2,5.4749493E2,2.3932811E2,6.3491644E2,2.1543285E2,6.989571E1,7.97868E2,4.031384E3,4.5666687E2,2.9460532E2,7.0628757E0,1.1283292E1,3.178218E2],"tree_param":{"num_deleted":"0","num_feature":"22","num_nodes":"25","size_leaf_vector":"1"}},{"base_weights":[6.315418E-3,-1.7378514E-1,2.2354311E-1,-4.43641E-2,-6.1351025E-1,1.5898949E-1,7.143717E-1,-7.922521E-2,-1.6103905E-2,-9.94325E-1,-3.0731472E-1,1.6980869E-1,-9.8481916E-2,5.8015716E-1,9.85559E-1,4.3251305E-3,-1.701819E-2,-7.0399605E-2,-4.0668298E-2,-7.775584E-2,-9.364053E-3,4.724298E-2,7.0892544E-3,1.4267144E-2,4.2906336E-2,5.2559443E-2,3.9341602E-2],"categories":[],"categories_nodes":[],"categories_segments":[],"categories_sizes":[],"default_left":[0,0,1,0,0,1,0,0,0,0,0,0,0,0,0,0,0,0,0,0,0,0,0,0,0,0,0],"id":36,"left_children":[1,3,5,7,9,11,13,-1,15,17,19,21,-1,23,25,-1,-1,-1,-1,-1,-1,-1,-1,-1,-1,-1,-1],"loss_changes":[3.0142047E2,2.3968849E2,1.1053783E2,1.4166702E2,1.1137265E2,7.1442696E1,1.4192017E1,0E0,1.0642421E2,3.0775146E1,7.944168E1,6.6609344E1,0E0,2.219043E1,9.057007E-1,0E0,0E0,0E0,0E0,0E0,0E0,0E0,0E0,0E0,0E0,0E0,0E0],"parents":[2147483647,0,0,1,1,2,2,3,3,4,4,5,5,6,6,8,8,9,9,10,10,11,11,13,13,14,14],"right_children":[2,4,6,8,10,12,14,-1,16,18,20,22,-1,24,26,-1,-1,-1,-1,-1,-1,-1,-1,-1,-1,-1,-1],"split_conditions":[1.4794821E7,5.21662E6,7E0,2.06715E5,1E0,2.002687E11,2.4E1,-7.922521E-2,9.5E1,5.655899E6,9.82E1,2.0001197E11,-9.8481916E-2,8.408255E7,3.7E1,4.3251305E-3,-1.701819E-2,-7.0399605E-2,-4.0668298E-2,-7.775584E-2,-9.364053E-3,4.724298E-2,7.0892544E-3,1.4267144E-2,4.2906336E-2,5.2559443E-2,3.9341602E-2],"split_indices":[3,3,5,3,1,4,5,0,6,3,9,4,0,0,5,0,0,0,0,0,0,0,0,0,0,0,0],"split_type":[0,0,0,0,0,0,0,0,0,0,0,0,0,0,0,0,0,0,0,0,0,0,0,0,0,0,0],"sum_hessian":[7.702473E3,4.211213E3,3.49126E3,3.2544546E3,9.567585E2,3.0866313E3,4.0462875E2,5.764808E1,3.1968064E3,4.254188E2,5.313397E2,3.0719377E3,1.469353E1,2.727701E2,1.3185863E2,2.4289424E3,7.678641E2,1.2740166E2,2.9801715E2,4.557826E1,4.8576144E2,1.0605479E2,2.965883E3,1.3335765E2,1.3941248E2,9.589843E1,3.5960194E1],"tree_param":{"num_deleted":"0","num_feature":"22","num_nodes":"27","size_leaf_vector":"1"}},{"base_weights":[1.8162003E-2,-1.5017337E-1,2.5227547E-1,4.4231045E-1,-2.1460706E-1,3.0929238E-1,-4.0185574E-1,6.341681E-1,-1.1677521E0,9.990144E-2,-3.3540654E-1,2.63058E-1,8.4958845E-1,-5.730259E-1,8.291944E-2,2.0946762E-2,7.496285E-2,-7.82198E-2,2.747872E-3,-8.9569636E-2,8.543081E-3,-2.0597827E-2,1.9829497E-2,4.0538823E-3,2.2046778E-2,3.1842377E-2,5.023092E-2,-1.0537351E-2,-7.772143E-2],"categories":[],"categories_nodes":[],"categories_segments":[],"categories_sizes":[],"default_left":[0,1,1,0,0,1,0,0,0,0,0,1,0,0,0,0,0,0,0,0,0,0,0,0,0,0,0,0,0],"id":37,"left_children":[1,3,5,7,9,11,13,15,17,19,21,23,25,27,-1,-1,-1,-1,-1,-1,-1,-1,-1,-1,-1,-1,-1,-1,-1],"loss_changes":[3.0684448E2,1.7300815E2,1.215878E2,1.3807578E2,1.5526268E2,7.4621185E1,9.318419E1,7.345935E1,2.3214317E1,1.5257564E2,1.655878E2,8.935219E1,7.134842E0,8.579301E1,0E0,0E0,0E0,0E0,0E0,0E0,0E0,0E0,0E0,0E0,0E0,0E0,0E0,0E0,0E0],"parents":[2147483647,0,0,1,1,2,2,3,3,4,4,5,5,6,6,7,7,8,8,9,9,10,10,11,11,12,12,13,13],"right_children":[2,4,6,8,10,12,14,16,18,20,22,24,26,28,-1,-1,-1,-1,-1,-1,-1,-1,-1,-1,-1,-1,-1,-1,-1],"split_conditions":[1.5189529E7,9.788E1,8.1E1,5.160165E6,5.7E1,1.4E1,6E1,4.725635E6,9.968796E9,2.5E1,9.99E1,2.1E1,2.4E1,2.6E1,8.291944E-2,2.0946762E-2,7.496285E-2,-7.82198E-2,2.747872E-3,-8.9569636E-2,8.543081E-3,-2.0597827E-2,1.9829497E-2,4.0538823E-3,2.2046778E-2,3.1842377E-2,5.023092E-2,-1.0537351E-2,-7.772143E-2],"split_indices":[3,9,2,3,2,5,7,3,0,2,9,7,5,7,0,0,0,0,0,0,0,0,0,0,0,0,0,0,0],"split_type":[0,0,0,0,0,0,0,0,0,0,0,0,0,0,0,0,0,0,0,0,0,0,0,0,0,0,0,0,0],"sum_hessian":[7.7840767E3,4.5283794E3,3.255697E3,4.4359045E2,4.084789E3,2.9951536E3,2.605434E2,3.969012E2,4.6689255E1,1.1335912E3,2.951198E3,2.7604246E3,2.3472896E2,2.4122379E2,1.9319593E1,3.19015E2,7.7886185E1,3.5042206E1,1.164705E1,4.0116814E1,1.0934745E3,2.672186E3,2.790119E2,1.3651957E3,1.3952289E3,1.0110069E2,1.3362827E2,1.7707307E2,6.415072E1],"tree_param":{"num_deleted":"0","num_feature":"22","num_nodes":"29","size_leaf_vector":"1"}},{"base_weights":[1.3619211E-2,9.421344E-2,-3.7098736E-1,4.0760347E-1,1.5452644E-2,-7.859937E-1,-1.4893447E-1,-6.289367E-2,4.3683484E-1,-3.4075E-1,1.0508353E-1,-8.763017E-1,1.5175965E0,-2.3221165E-1,6.485042E-1,3.7988123E-2,1.5455568E-2,-1.9352555E-2,6.6839576E-2,3.020733E-2,3.165067E-3,1.9836944E-2,-4.7332432E-2,1.1713854E-1,-5.3913355E-2,-2.1343013E-2,1.3806119E-2,6.2525205E-2,-7.358051E-2],"categories":[],"categories_nodes":[],"categories_segments":[],"categories_sizes":[],"default_left":[1,0,0,0,1,1,0,0,0,1,1,0,0,0,1,0,0,0,0,0,0,0,0,0,0,0,0,0,0],"id":38,"left_children":[1,3,5,7,9,11,13,-1,15,17,19,21,23,25,27,-1,-1,-1,-1,-1,-1,-1,-1,-1,-1,-1,-1,-1,-1],"loss_changes":[2.3859724E2,1.570687E2,1.227744E2,6.2771393E1,1.6243633E2,9.797955E1,5.7923626E1,0E0,5.1601135E1,7.9965256E1,8.472066E1,4.046878E1,4.08522E1,7.813134E1,1.0716673E2,0E0,0E0,0E0,0E0,0E0,0E0,0E0,0E0,0E0,0E0,0E0,0E0,0E0,0E0],"parents":[2147483647,0,0,1,1,2,2,3,3,4,4,5,5,6,6,8,8,9,9,10,10,11,11,12,12,13,13,14,14],"right_children":[2,4,6,8,10,12,14,-1,16,18,20,22,24,26,28,-1,-1,-1,-1,-1,-1,-1,-1,-1,-1,-1,-1,-1,-1],"split_conditions":[8.1E1,1E0,2.1E1,2.000032E11,1.9E1,9.99E1,4.7E1,-6.289367E-2,5E1,8E1,9.788E1,9.76E1,8.6E1,9.94E1,9.89E1,3.7988123E-2,1.5455568E-2,-1.9352555E-2,6.6839576E-2,3.020733E-2,3.165067E-3,1.9836944E-2,-4.7332432E-2,1.1713854E-1,-5.3913355E-2,-2.1343013E-2,1.3806119E-2,6.2525205E-2,-7.358051E-2],"split_indices":[2,18,7,4,7,9,7,0,2,2,9,9,2,9,9,0,0,0,0,0,0,0,0,0,0,0,0,0,0],"split_type":[0,0,0,0,0,0,0,0,0,0,0,0,0,0,0,0,0,0,0,0,0,0,0,0,0,0,0,0,0],"sum_hessian":[7.6952847E3,6.3627305E3,1.3325538E3,1.2770721E3,5.085658E3,4.635888E2,8.689651E2,2.1302746E1,1.2557694E3,1.02186334E3,4.063795E3,4.4669647E2,1.6892324E1,7.874408E2,8.15243E1,3.545075E2,9.012619E2,9.9516547E2,2.669785E1,3.129026E2,3.7508923E3,2.3148447E1,4.2354803E2,1.2891779E1,4.0005455E0,5.6952246E2,2.179183E2,6.3814533E1,1.7709764E1],"tree_param":{"num_deleted":"0","num_feature":"22","num_nodes":"29","size_leaf_vector":"1"}},{"base_weights":[-4.0908023E-3,3.0770335E-1,-1.1611049E-1,3.7364724E-1,-3.6955065E-1,-2.2518939E-1,1.9471015E-1,1.7882215E0,3.3384717E-1,-1.2887896E0,2.0790234E-1,-7.693781E-1,-1.4312133E-1,7.482105E-2,5.9006864E-1,6.2392104E-2,1.295533E-1,5.4714013E-2,1.4055321E-2,8.560464E-2,-8.195298E-2,-6.585193E-2,3.2267492E-2,5.39488E-2,-4.2656943E-2,-1.0548464E-2,2.2446496E-2,7.488781E-3,-3.0007152E-2,-8.071839E-3,3.9814595E-2],"categories":[],"categories_nodes":[],"categories_segments":[],"categories_sizes":[],"default_left":[1,1,0,0,0,0,0,0,0,0,0,0,0,0,0,0,0,0,0,0,0,0,0,0,0,0,0,0,0,0,0],"id":39,"left_children":[1,3,5,7,9,11,13,15,17,19,21,23,25,27,29,-1,-1,-1,-1,-1,-1,-1,-1,-1,-1,-1,-1,-1,-1,-1,-1],"loss_changes":[2.6449115E2,8.952934E1,1.8892566E2,1.0212036E2,9.480708E1,1.8408434E2,6.857837E1,1.8327866E1,7.091078E1,7.517978E1,7.4393906E1,8.4561005E1,1.4410544E2,5.6349556E1,5.2313103E1,0E0,0E0,0E0,0E0,0E0,0E0,0E0,0E0,0E0,0E0,0E0,0E0,0E0,0E0,0E0,0E0],"parents":[2147483647,0,0,1,1,2,2,3,3,4,4,5,5,6,6,7,7,8,8,9,9,10,10,11,11,12,12,13,13,14,14],"right_children":[2,4,6,8,10,12,14,16,18,20,22,24,26,28,30,-1,-1,-1,-1,-1,-1,-1,-1,-1,-1,-1,-1,-1,-1,-1,-1],"split_conditions":[9.81E1,9.4E1,1.5664138E7,1.4E1,2.4E1,1.9E1,1.9396624E7,8.9E1,6.6E1,9.5E1,9.7E1,7E0,4.2E1,9.8E1,2.1E1,6.2392104E-2,1.295533E-1,5.4714013E-2,1.4055321E-2,8.560464E-2,-8.195298E-2,-6.585193E-2,3.2267492E-2,5.39488E-2,-4.2656943E-2,-1.0548464E-2,2.2446496E-2,7.488781E-3,-3.0007152E-2,-8.071839E-3,3.9814595E-2],"split_indices":[9,6,3,7,7,7,3,6,6,8,6,7,7,6,7,0,0,0,0,0,0,0,0,0,0,0,0,0,0,0,0],"split_type":[0,0,0,0,0,0,0,0,0,0,0,0,0,0,0,0,0,0,0,0,0,0,0,0,0,0,0,0,0,0,0],"sum_hessian":[7.5706436E3,2.000561E3,5.5700825E3,1.8234598E3,1.771011E2,4.123325E3,1.4467576E3,4.8698196E1,1.7747617E3,6.78538E1,1.09247314E2,5.392451E2,3.58408E3,1.1110349E3,3.3572266E2,3.0633589E1,1.806461E1,1.13826515E2,1.6609352E3,6.6858587E0,6.116794E1,2.3904736E1,8.5342575E1,2.2862167E1,5.1638293E2,3.2161582E3,3.679219E2,1.00068695E3,1.1034792E2,7.233636E1,2.6338632E2],"tree_param":{"num_deleted":"0","num_feature":"22","num_nodes":"31","size_leaf_vector":"1"}},{"base_weights":[-1.7866014E-2,-7.819623E-2,5.251858E-1,-4.9944755E-1,-1.6000183E-2,4.1598034E-1,9.8797935E-1,4.0490377E-1,-8.593478E-1,-6.369026E-2,5.382167E-1,1.0038701E0,3.2538345E-1,5.058603E-1,5.0527003E-2,-7.233759E-2,3.459323E-2,4.9819017E-5,-5.2114647E-2,2.413979E-2,-5.097647E-3,3.0516317E-2,-1.108393E-1,-3.4847137E-2,5.201549E-2,-1.4246754E-1,1.7533911E-2,4.603949E-2,-1.3622549E-2],"categories":[],"categories_nodes":[],"categories_segments":[],"categories_sizes":[],"default_left":[1,0,0,0,1,0,0,0,0,0,0,0,0,0,0,0,0,0,0,0,0,0,0,0,0,0,0,0,0],"id":40,"left_children":[1,3,5,7,9,11,13,15,17,19,21,23,25,27,-1,-1,-1,-1,-1,-1,-1,-1,-1,-1,-1,-1,-1,-1,-1],"loss_changes":[2.4645692E2,1.7737064E2,3.760286E1,2.838222E2,1.5597987E2,3.2177734E1,1.0428314E0,1.3310455E2,9.811124E1,1.1366581E2,9.424483E1,5.7458267E0,4.358243E1,2.9601207E0,0E0,0E0,0E0,0E0,0E0,0E0,0E0,0E0,0E0,0E0,0E0,0E0,0E0,0E0,0E0],"parents":[2147483647,0,0,1,1,2,2,3,3,4,4,5,5,6,6,7,7,8,8,9,9,10,10,11,11,12,12,13,13],"right_children":[2,4,6,8,10,12,14,16,18,20,22,24,26,28,-1,-1,-1,-1,-1,-1,-1,-1,-1,-1,-1,-1,-1,-1,-1],"split_conditions":[4E0,2.0000625E11,2.4E1,8.211829E7,4.2E1,7.7E1,8.36597E7,8E1,7.4E1,6.8E1,1.3114709E10,8.303642E7,1.7E1,1E0,5.0527003E-2,-7.233759E-2,3.459323E-2,4.9819017E-5,-5.2114647E-2,2.413979E-2,-5.097647E-3,3.0516317E-2,-1.108393E-1,-3.4847137E-2,5.201549E-2,-1.4246754E-1,1.7533911E-2,4.603949E-2,-1.3622549E-2],"split_indices":[5,4,5,0,7,6,0,6,6,6,0,0,7,10,0,0,0,0,0,0,0,0,0,0,0,0,0,0,0],"split_type":[0,0,0,0,0,0,0,0,0,0,0,0,0,0,0,0,0,0,0,0,0,0,0,0,0,0,0,0,0],"sum_hessian":[7.520293E3,6.7691333E3,7.511593E2,8.6995215E2,5.899181E3,6.0928503E2,1.4187427E2,2.4761765E2,6.2233453E2,5.432594E3,4.6658685E2,8.0010475E1,5.2927454E2,7.38922E0,1.3448505E2,3.268317E1,2.1493448E2,1.0930336E2,5.130312E2,3.5471838E2,5.077876E3,4.5544446E2,1.1142372E1,1.2980571E0,7.871242E1,3.3011606E0,5.259734E2,4.7003384E0,2.6888819E0],"tree_param":{"num_deleted":"0","num_feature":"22","num_nodes":"29","size_leaf_vector":"1"}},{"base_weights":[5.2858074E-3,2.2262214E-1,-1.498442E-1,9.362665E-2,4.4875607E-1,-3.0609673E-1,1.2384811E-1,-8.328711E-1,1.5666908E-1,7.3400944E-2,6.5514386E-1,3.42534E-1,-4.3764615E-1,7.181449E-1,-4.052445E-2,-5.8259103E-3,-7.251994E-2,3.384016E-2,4.1313395E-3,1.7442638E-2,-6.1713647E-2,2.8139064E-2,4.9617514E-2,-3.4762837E-2,3.0238554E-2,-3.8748126E-2,-3.29751E-3,3.3108182E-3,7.520653E-2,-1.8697074E-2,1.2591439E-2],"categories":[],"categories_nodes":[],"categories_segments":[],"categories_sizes":[],"default_left":[1,1,0,0,0,1,0,0,0,0,1,0,0,0,0,0,0,0,0,0,0,0,0,0,0,0,0,0,0,0,0],"id":41,"left_children":[1,3,5,7,9,11,13,15,17,19,21,23,25,27,29,-1,-1,-1,-1,-1,-1,-1,-1,-1,-1,-1,-1,-1,-1,-1,-1],"loss_changes":[2.5583609E2,9.214746E1,1.8939021E2,1.17747475E2,8.886287E1,2.4067572E2,1.5728975E2,5.6652336E1,7.25869E1,1.4750146E2,2.2501495E1,1.299251E2,2.938386E2,1.7865005E2,1.2310964E2,0E0,0E0,0E0,0E0,0E0,0E0,0E0,0E0,0E0,0E0,0E0,0E0,0E0,0E0,0E0,0E0],"parents":[2147483647,0,0,1,1,2,2,3,3,4,4,5,5,6,6,7,7,8,8,9,9,10,10,11,11,12,12,13,13,14,14],"right_children":[2,4,6,8,10,12,14,16,18,20,22,24,26,28,30,-1,-1,-1,-1,-1,-1,-1,-1,-1,-1,-1,-1,-1,-1,-1,-1],"split_conditions":[5.7E1,2.4E1,7.095954E9,9.82E1,6.289802E6,9.806E1,1.663856E6,1E0,2.847859E6,5.168683E6,9.96E1,9.674819E8,2.5E1,1.420082E6,1.5160284E7,-5.8259103E-3,-7.251994E-2,3.384016E-2,4.1313395E-3,1.7442638E-2,-6.1713647E-2,2.8139064E-2,4.9617514E-2,-3.4762837E-2,3.0238554E-2,-3.8748126E-2,-3.29751E-3,3.3108182E-3,7.520653E-2,-1.8697074E-2,1.2591439E-2],"split_indices":[2,7,0,9,3,9,3,1,3,3,9,0,7,3,3,0,0,0,0,0,0,0,0,0,0,0,0,0,0,0,0],"split_type":[0,0,0,0,0,0,0,0,0,0,0,0,0,0,0,0,0,0,0,0,0,0,0,0,0,0,0,0,0,0,0],"sum_hessian":[7.58612E3,3.1593926E3,4.4267275E3,2.0126904E3,1.1467021E3,2.8178706E3,1.608857E3,1.27448166E2,1.8852423E3,4.073021E2,7.394001E2,4.7486243E2,2.343008E3,3.4784348E2,1.2610137E3,5.9553173E1,6.789499E1,2.3391183E2,1.6513304E3,3.3704028E2,7.026182E1,5.8251514E2,1.5688495E2,9.5454506E1,3.7940793E2,1.2277408E3,1.1152672E3,1.9072917E2,1.571143E2,5.8900183E2,6.720118E2],"tree_param":{"num_deleted":"0","num_feature":"22","num_nodes":"31","size_leaf_vector":"1"}},{"base_weights":[-2.70035E-3,1.10610604E-1,-4.0000847E-1,-8.1164315E-2,1.2628326E-1,-1.086149E-1,-6.517173E-1,4.2368227E-1,4.5890894E-2,-3.3125353E-1,5.8858037E-1,-7.622244E-1,8.2453465E-1,4.1503217E-2,1.599542E-2,1.0411632E-2,-3.8095457E-3,-3.8435508E-2,-1.0673652E-3,-6.364676E-2,3.4414303E-2,2.1368006E-2,-4.3526642E-2,9.9328555E-2,-2.9610297E-2],"categories":[],"categories_nodes":[],"categories_segments":[],"categories_sizes":[],"default_left":[1,0,0,0,0,0,0,0,0,0,0,0,0,0,0,0,0,0,0,0,0,0,0,0,0],"id":42,"left_children":[1,3,5,-1,7,9,11,13,15,17,19,21,23,-1,-1,-1,-1,-1,-1,-1,-1,-1,-1,-1,-1],"loss_changes":[3.3795538E2,1.5893448E2,1.2211282E2,0E0,1.3840341E2,1.2022245E2,1.464046E2,5.16857E1,9.0366035E1,7.952805E1,3.5680878E1,1.0755209E2,1.0442032E2,0E0,0E0,0E0,0E0,0E0,0E0,0E0,0E0,0E0,0E0,0E0,0E0],"parents":[2147483647,0,0,1,1,2,2,4,4,5,5,6,6,7,7,8,8,9,9,10,10,11,11,12,12],"right_children":[2,4,6,-1,8,10,12,14,16,18,20,22,24,-1,-1,-1,-1,-1,-1,-1,-1,-1,-1,-1,-1],"split_conditions":[7.8E1,2.75741E5,8.5E1,-8.1164315E-2,1E0,3.2E1,1.3690449E10,4E1,5.8E1,1.988033E9,8.262976E7,8.232364E7,9.8E1,4.1503217E-2,1.599542E-2,1.0411632E-2,-3.8095457E-3,-3.8435508E-2,-1.0673652E-3,-6.364676E-2,3.4414303E-2,2.1368006E-2,-4.3526642E-2,9.9328555E-2,-2.9610297E-2],"split_indices":[2,3,6,0,18,7,0,2,2,0,0,0,9,0,0,0,0,0,0,0,0,0,0,0,0],"split_type":[0,0,0,0,0,0,0,0,0,0,0,0,0,0,0,0,0,0,0,0,0,0,0,0,0],"sum_hessian":[7.5049067E3,5.840062E3,1.6648447E3,5.1396442E1,5.7886655E3,7.722603E2,8.925844E2,1.2308943E3,4.5577715E3,5.857386E2,1.8652177E2,8.308719E2,6.171251E1,2.4895984E2,9.8193445E2,1.9560082E3,2.6017632E3,2.4227219E2,3.4346637E2,8.884286E0,1.7763748E2,6.908997E1,7.617819E2,3.3682938E1,2.8029572E1],"tree_param":{"num_deleted":"0","num_feature":"22","num_nodes":"25","size_leaf_vector":"1"}},{"base_weights":[1.9197493E-3,1.7932786E-1,-1.6169782E-1,1.4166285E-1,7.8418213E-1,7.367758E-1,-2.1282226E-1,1.5366349E-1,-1.05754785E-1,-4.8121233E-2,8.171217E-1,-6.697508E-2,1.0117308E0,-8.6548346E-1,-1.36459E-1,-7.856355E-2,8.299219E-3,-2.6662236E-2,4.188207E-2,-3.9426263E-2,6.983177E-2,-6.255223E-2,-2.6837101E-2,1.2246835E-2,-1.2693601E-2],"categories":[],"categories_nodes":[],"categories_segments":[],"categories_sizes":[],"default_left":[1,1,0,1,0,0,0,0,0,0,0,0,0,0,0,0,0,0,0,0,0,0,0,0,0],"id":43,"left_children":[1,3,5,7,9,11,13,15,-1,-1,17,-1,19,21,23,-1,-1,-1,-1,-1,-1,-1,-1,-1,-1],"loss_changes":[2.1736996E2,8.1740486E1,1.791008E2,9.195739E1,1.2890961E1,1.2121754E2,1.8362555E2,7.180785E1,0E0,0E0,6.1836243E0,0E0,1.2996938E2,4.8252228E1,1.4791652E2,0E0,0E0,0E0,0E0,0E0,0E0,0E0,0E0,0E0,0E0],"parents":[2147483647,0,0,1,1,2,2,3,3,4,4,5,5,6,6,7,7,10,10,12,12,13,13,14,14],"right_children":[2,4,6,8,10,12,14,16,-1,-1,18,-1,20,22,24,-1,-1,-1,-1,-1,-1,-1,-1,-1,-1],"split_conditions":[6.2E1,1.4E1,8.211829E7,2.0026586E11,8.359941E7,1.0593275E8,1.9105352E8,2.75741E5,-1.05754785E-1,-4.8121233E-2,1E0,-6.697508E-2,8.209838E7,7.9E1,7.7E1,-7.856355E-2,8.299219E-3,-2.6662236E-2,4.188207E-2,-3.9426263E-2,6.983177E-2,-6.255223E-2,-2.6837101E-2,1.2246835E-2,-1.2693601E-2],"split_indices":[2,5,0,4,0,4,4,3,0,0,1,0,0,2,6,0,0,0,0,0,0,0,0,0,0],"split_type":[0,0,0,0,0,0,0,0,0,0,0,0,0,0,0,0,0,0,0,0,0,0,0,0,0],"sum_hessian":[7.4865234E3,3.591844E3,3.8946794E3,3.382449E3,2.0939494E2,2.0895961E2,3.6857197E3,3.3654846E3,1.6964537E1,3.3536022E0,2.0604135E2,2.3983139E1,1.8497647E2,3.8498636E2,3.3007334E3,2.2971205E1,3.3425134E3,2.7100718E0,2.0333127E2,3.2397926E1,1.5257854E2,1.7588998E2,2.0909637E2,7.766936E2,2.5240398E3],"tree_param":{"num_deleted":"0","num_feature":"22","num_nodes":"25","size_leaf_vector":"1"}},{"base_weights":[2.0141333E-2,3.3617234E-1,-4.429479E-2,2.6563546E-1,9.4678044E-1,-1.2549995E-1,2.1564987E-1,1.06876075E-1,5.724598E-1,6.4117867E-1,9.6595424E-1,3.4631878E-1,-2.271087E-1,-8.067266E-1,3.2329535E-1,5.002602E-2,8.0314226E-4,-7.507775E-3,3.3713493E-2,4.3708306E-2,-8.496786E-3,5.031342E-2,3.8991954E-2,-7.211038E-2,2.1700153E-2,-2.4757767E-2,1.2777831E-3,4.7431258E-3,-8.0293305E-2,4.6011027E-2,9.447903E-3],"categories":[],"categories_nodes":[],"categories_segments":[],"categories_sizes":[],"default_left":[0,0,1,1,0,0,0,0,0,0,0,0,0,0,0,0,0,0,0,0,0,0,0,0,0,0,0,0,0,0,0],"id":44,"left_children":[1,3,5,7,9,11,13,15,17,19,21,23,25,27,29,-1,-1,-1,-1,-1,-1,-1,-1,-1,-1,-1,-1,-1,-1,-1,-1],"loss_changes":[1.5352184E2,5.474051E1,1.3221971E2,5.576014E1,1.5312195E-1,2.2887149E2,1.6435565E2,6.1371883E1,2.8832542E1,2.1814208E0,1.3118744E-1,1.3330707E2,2.6599564E2,1.0269449E2,1.0805884E2,0E0,0E0,0E0,0E0,0E0,0E0,0E0,0E0,0E0,0E0,0E0,0E0,0E0,0E0,0E0,0E0],"parents":[2147483647,0,0,1,1,2,2,3,3,4,4,5,5,6,6,7,7,8,8,9,9,10,10,11,11,12,12,13,13,14,14],"right_children":[2,4,6,8,10,12,14,16,18,20,22,24,26,28,30,-1,-1,-1,-1,-1,-1,-1,-1,-1,-1,-1,-1,-1,-1,-1,-1],"split_conditions":[1E0,2.4E1,9.94E1,6.024842E6,8.36597E7,1.663856E6,1.604273E6,9.788E1,1E0,8.359941E7,4.1E1,2.06715E5,6.508317E6,8.5E1,8.26697E7,5.002602E-2,8.0314226E-4,-7.507775E-3,3.3713493E-2,4.3708306E-2,-8.496786E-3,5.031342E-2,3.8991954E-2,-7.211038E-2,2.1700153E-2,-2.4757767E-2,1.2777831E-3,4.7431258E-3,-8.0293305E-2,4.6011027E-2,9.447903E-3],"split_indices":[18,5,9,3,0,3,3,9,19,0,5,3,3,6,0,0,0,0,0,0,0,0,0,0,0,0,0,0,0,0,0],"split_type":[0,0,0,0,0,0,0,0,0,0,0,0,0,0,0,0,0,0,0,0,0,0,0,0,0,0,0,0,0,0,0],"sum_hessian":[7.537222E3,1.2757938E3,6.261428E3,1.1449637E3,1.3083012E2,4.7713916E3,1.4900369E3,7.554311E2,3.895326E2,9.757089E0,1.2107304E2,8.450423E2,3.926349E3,1.4132172E2,1.3487152E3,6.876217E1,6.8666895E2,4.8045574E1,3.4148703E2,7.5194416E0,2.2376468E0,9.58947E1,2.5178339E1,3.8770924E1,8.0627136E2,1.904715E3,2.0216342E3,6.681845E1,7.4503265E1,2.4669235E2,1.1020228E3],"tree_param":{"num_deleted":"0","num_feature":"22","num_nodes":"31","size_leaf_vector":"1"}},{"base_weights":[6.372368E-3,4.9766358E-2,-9.284922E-1,-1.1162543E-3,4.9070758E-1,-1.1185559E0,4.6971664E-1,-7.373471E-2,1.3932662E-2,4.026944E-1,9.377313E-1,-6.0362358E-2,-6.6540486E-1,-5.9683956E-2,1.2534752E0,-1.2590416E-2,4.0599634E-3,4.049167E-2,1.3805471E-2,4.9413014E-2,3.7497256E-2,-5.6985565E-2,5.2162107E-2,-4.989595E-2,7.752466E-2],"categories":[],"categories_nodes":[],"categories_segments":[],"categories_sizes":[],"default_left":[1,1,0,0,0,0,0,0,1,0,0,0,0,0,0,0,0,0,0,0,0,0,0,0,0],"id":45,"left_children":[1,3,5,7,9,11,13,-1,15,17,19,-1,21,-1,23,-1,-1,-1,-1,-1,-1,-1,-1,-1,-1],"loss_changes":[3.0366318E2,1.6049152E2,8.876462E1,1.4225912E2,2.8738937E1,1.0956482E1,5.421589E1,0E0,1.1353517E2,3.1733139E1,4.0683746E-1,0E0,4.1809303E1,0E0,2.0254189E1,0E0,0E0,0E0,0E0,0E0,0E0,0E0,0E0,0E0,0E0],"parents":[2147483647,0,0,1,1,2,2,3,3,4,4,5,5,6,6,8,8,9,9,10,10,12,12,14,14],"right_children":[2,4,6,8,10,12,14,-1,16,18,20,-1,22,-1,24,-1,-1,-1,-1,-1,-1,-1,-1,-1,-1],"split_conditions":[9.1E1,4E0,9.98E1,2.75741E5,2.4E1,1E2,6.077303E6,-7.373471E-2,1.9E1,4.1E1,4.1E1,-6.0362358E-2,2.0015284E11,-5.9683956E-2,9.6E1,-1.2590416E-2,4.0599634E-3,4.049167E-2,1.3805471E-2,4.9413014E-2,3.7497256E-2,-5.6985565E-2,5.2162107E-2,-4.989595E-2,7.752466E-2],"split_indices":[2,5,9,3,5,2,3,0,7,2,5,0,4,0,2,0,0,0,0,0,0,0,0,0,0],"split_type":[0,0,0,0,0,0,0,0,0,0,0,0,0,0,0,0,0,0,0,0,0,0,0,0,0],"sum_hessian":[7.4832417E3,7.1522017E3,3.3103992E2,6.413151E3,7.3905096E2,2.9160144E2,3.9438457E1,6.385168E1,6.3492993E3,6.190658E2,1.19985176E2,2.4247903E2,4.912241E1,1.2463582E1,2.6974873E1,1.2819866E3,5.0673125E3,1.455456E2,4.735202E2,9.118636E1,2.8798811E1,3.8709846E1,1.0412563E1,2.8688924E0,2.4105982E1],"tree_param":{"num_deleted":"0","num_feature":"22","num_nodes":"25","size_leaf_vector":"1"}},{"base_weights":[3.135368E-2,-1.284741E-1,1.6939378E-1,-5.036078E-2,-7.4404603E-1,-1.242348E0,1.9105023E-1,-1.0382968E-1,7.1320206E-1,1.0590299E0,-8.0309665E-1,1.0514238E0,-8.195266E-2,6.78688E-1,1.1894575E-1,3.6563553E-2,-7.6989704E-3,3.821672E-2,-1.3136321E-1,-5.7209164E-2,7.092296E-2,-5.5523634E-2,-2.9151866E-2,9.9626355E-2,-6.521312E-2,1.3263652E-2,5.9598375E-2,-6.75454E-5,2.3182249E-2],"categories":[],"categories_nodes":[],"categories_segments":[],"categories_sizes":[],"default_left":[0,0,0,1,0,0,0,0,0,0,1,0,0,0,1,0,0,0,0,0,0,0,0,0,0,0,0,0,0],"id":46,"left_children":[1,3,5,7,9,11,13,15,17,19,21,23,-1,25,27,-1,-1,-1,-1,-1,-1,-1,-1,-1,-1,-1,-1,-1,-1],"loss_changes":[1.6664717E2,1.682841E2,1.2414588E2,1.2694092E2,4.281256E1,5.7562836E1,1.4029784E2,1.2177204E2,3.676483E1,1.1861505E1,2.5203674E1,2.4008696E1,0E0,1.0877156E2,1.4427718E2,0E0,0E0,0E0,0E0,0E0,0E0,0E0,0E0,0E0,0E0,0E0,0E0,0E0,0E0],"parents":[2147483647,0,0,1,1,2,2,3,3,4,4,5,5,6,6,7,7,8,8,9,9,10,10,11,11,13,13,14,14],"right_children":[2,4,6,8,10,12,14,16,18,20,22,24,-1,26,28,-1,-1,-1,-1,-1,-1,-1,-1,-1,-1,-1,-1,-1,-1],"split_conditions":[2.0014146E11,9.8E1,4.70064E5,1E0,9.74E1,7E1,1.663856E6,8.210751E7,4.6E1,9.7E1,9.9E1,9.8E1,-8.195266E-2,1.420082E6,9.91E1,3.6563553E-2,-7.6989704E-3,3.821672E-2,-1.3136321E-1,-5.7209164E-2,7.092296E-2,-5.5523634E-2,-2.9151866E-2,9.9626355E-2,-6.521312E-2,1.3263652E-2,5.9598375E-2,-6.75454E-5,2.3182249E-2],"split_indices":[4,6,3,16,9,6,3,0,7,9,6,8,0,3,9,0,0,0,0,0,0,0,0,0,0,0,0,0,0],"split_type":[0,0,0,0,0,0,0,0,0,0,0,0,0,0,0,0,0,0,0,0,0,0,0,0,0,0,0,0,0],"sum_hessian":[7.551378E3,3.4995464E3,4.0518313E3,3.1064355E3,3.9311096E2,6.036537E1,3.9914658E3,2.903949E3,2.0248659E2,1.1929076E1,3.811819E2,8.657401E0,5.170797E1,5.130862E2,3.4783796E3,1.6374022E2,2.7402087E3,2.0019342E2,2.2931616E0,1.3669114E0,1.0562165E1,1.573505E2,2.2383139E2,6.2962103E0,2.361191E0,2.850294E2,2.2805678E2,2.5792446E3,8.991351E2],"tree_param":{"num_deleted":"0","num_feature":"22","num_nodes":"29","size_leaf_vector":"1"}},{"base_weights":[5.032956E-3,1.9255313E-1,-1.2871131E-1,4.706526E-1,8.6040355E-2,5.665781E-1,-1.6591927E-1,-7.632285E-2,5.026039E-1,5.855642E-3,8.1374913E-1,1.2119784E0,-4.0180436E-1,-7.590918E-1,-6.1727416E-2,3.3675134E-2,5.2065644E-3,2.2980114E-2,-3.142434E-3,-7.376171E-3,4.2646226E-2,7.646934E-2,-6.994567E-2,-7.516048E-2,4.521941E-2,1.0277553E-2,-4.165722E-2,5.2985907E-2,-4.170059E-3],"categories":[],"categories_nodes":[],"categories_segments":[],"categories_sizes":[],"default_left":[1,0,0,0,1,0,0,0,0,0,0,0,0,0,0,0,0,0,0,0,0,0,0,0,0,0,0,0,0],"id":47,"left_children":[1,3,5,7,9,11,13,-1,15,17,19,21,23,25,27,-1,-1,-1,-1,-1,-1,-1,-1,-1,-1,-1,-1,-1,-1],"loss_changes":[1.8549487E2,9.1165115E1,1.11779816E2,5.516414E1,1.2997766E2,1.3768593E2,2.5326337E2,0E0,5.71196E1,6.26116E1,8.451477E0,1.11510895E2,1.2874278E2,4.3908905E1,8.485156E1,0E0,0E0,0E0,0E0,0E0,0E0,0E0,0E0,0E0,0E0,0E0,0E0,0E0,0E0],"parents":[2147483647,0,0,1,1,2,2,3,3,4,4,5,5,6,6,8,8,9,9,10,10,11,11,12,12,13,13,14,14],"right_children":[2,4,6,8,10,12,14,-1,16,18,20,22,24,26,28,-1,-1,-1,-1,-1,-1,-1,-1,-1,-1,-1,-1,-1,-1],"split_conditions":[5.7E1,1E0,8.211829E7,8.212714E7,1.4E1,4.238508E6,7.2186464E8,-7.632285E-2,2.0015497E11,3.126327E6,8.36597E7,9.1E1,8.7E1,6E1,2.0002734E11,3.3675134E-2,5.2065644E-3,2.2980114E-2,-3.142434E-3,-7.376171E-3,4.2646226E-2,7.646934E-2,-6.994567E-2,-7.516048E-2,4.521941E-2,1.0277553E-2,-4.165722E-2,5.2985907E-2,-4.170059E-3],"split_indices":[2,1,0,0,5,3,0,0,4,3,0,6,2,2,4,0,0,0,0,0,0,0,0,0,0,0,0,0,0],"split_type":[0,0,0,0,0,0,0,0,0,0,0,0,0,0,0,0,0,0,0,0,0,0,0,0,0,0,0,0,0],"sum_hessian":[7.3942134E3,3.078071E3,4.3161426E3,8.514804E2,2.2265908E3,2.185203E2,4.097622E3,1.2671561E1,8.3880884E2,2.0065061E3,2.2008467E2,1.309765E2,8.75438E1,6.112787E2,3.4863433E3,5.865544E2,2.5225447E2,2.631151E2,1.743391E3,8.509738E0,2.1157494E2,1.1714884E2,1.3827657E1,4.741325E1,4.0130547E1,4.34538E1,5.678249E2,6.519367E1,3.4211497E3],"tree_param":{"num_deleted":"0","num_feature":"22","num_nodes":"29","size_leaf_vector":"1"}},{"base_weights":[1.2674525E-2,8.065228E-2,-3.2771933E-1,3.6892435E-1,1.0940602E-2,-2.2476323E-1,-8.1219476E-1,7.184321E-1,2.443791E-1,-7.195144E-2,2.4424545E-2,-7.393002E-2,-6.681409E-1,4.9258837E-1,-1.0117918E0,-6.1503705E-2,3.72059E-2,1.7921252E-2,-4.7091283E-2,1.9021928E-2,-2.0072428E-3,-8.0952E-4,-7.6650105E-2,8.5213594E-2,-4.210427E-2,-6.208669E-2,1.6138688E-1,7.913203E-2,-5.666854E-2],"categories":[],"categories_nodes":[],"categories_segments":[],"categories_sizes":[],"default_left":[1,0,0,0,0,0,0,0,1,0,0,0,1,0,0,0,0,0,0,0,0,0,0,0,0,0,0,0,0],"id":48,"left_children":[1,3,5,7,9,11,13,15,17,-1,19,21,23,25,27,-1,-1,-1,-1,-1,-1,-1,-1,-1,-1,-1,-1,-1,-1],"loss_changes":[1.7181163E2,1.2436943E2,6.1468674E1,5.2285248E1,9.7494705E1,6.82146E1,5.6815094E1,1.6736511E1,1.2074698E2,0E0,1.1357099E2,6.4235886E1,1.0830861E2,1.4329651E2,6.1056778E1,0E0,0E0,0E0,0E0,0E0,0E0,0E0,0E0,0E0,0E0,0E0,0E0,0E0,0E0],"parents":[2147483647,0,0,1,1,2,2,3,3,4,4,5,5,6,6,7,7,8,8,10,10,11,11,12,12,13,13,14,14],"right_children":[2,4,6,8,10,12,14,16,18,-1,20,22,24,26,28,-1,-1,-1,-1,-1,-1,-1,-1,-1,-1,-1,-1,-1,-1],"split_conditions":[8.1E1,1E0,9.6E1,5E1,2.75741E5,9.1E1,9.82E1,5.154673E8,8.9E1,-7.195144E-2,1.663856E6,1.8631058E7,9.73E1,9.806E1,8.2111096E7,-6.1503705E-2,3.72059E-2,1.7921252E-2,-4.7091283E-2,1.9021928E-2,-2.0072428E-3,-8.0952E-4,-7.6650105E-2,8.5213594E-2,-4.210427E-2,-6.208669E-2,1.6138688E-1,7.913203E-2,-5.666854E-2],"split_indices":[2,18,6,2,3,2,9,0,6,0,3,3,9,9,0,0,0,0,0,0,0,0,0,0,0,0,0,0,0],"split_type":[0,0,0,0,0,0,0,0,0,0,0,0,0,0,0,0,0,0,0,0,0,0,0,0,0,0,0,0,0],"sum_hessian":[7.422987E3,6.187989E3,1.2349983E3,1.2041772E3,4.9838115E3,1.01975385E3,2.1524445E2,3.1511377E2,8.890634E2,4.4945667E1,4.9388657E3,7.617723E2,2.5798157E2,2.836328E1,1.8688116E2,3.4898205E0,3.1162396E2,8.1171967E2,7.7343765E1,7.5748047E2,4.1813853E3,7.3374695E2,2.802535E1,1.7022022E1,2.4095953E2,1.7691402E1,1.0671878E1,7.8275647E0,1.790536E2],"tree_param":{"num_deleted":"0","num_feature":"22","num_nodes":"29","size_leaf_vector":"1"}},{"base_weights":[-1.3645813E-2,2.1317322E-2,-8.011592E-1,-2.0181878E-2,4.166119E-1,1.7374068E0,-8.9941E-1,-7.969475E-3,-1.4974694E0,3.3134025E-1,9.0384877E-1,1.15085684E-1,3.956813E-2,4.8125055E-1,-1.0128373E0,-1.4118708E-2,2.6962135E-3,5.286939E-2,-9.350924E-2,3.9418437E-2,1.050616E-2,2.2907542E-2,4.6622317E-2,-5.2765977E-2,7.895153E-2,-5.4601755E-2,6.0961008E-2],"categories":[],"categories_nodes":[],"categories_segments":[],"categories_sizes":[],"default_left":[1,1,1,0,0,0,0,1,0,0,0,0,0,0,0,0,0,0,0,0,0,0,0,0,0,0,0],"id":49,"left_children":[1,3,5,7,9,11,13,15,17,19,21,-1,-1,23,25,-1,-1,-1,-1,-1,-1,-1,-1,-1,-1,-1,-1],"loss_changes":[2.0038962E2,1.143293E2,7.872716E1,1.137878E2,2.7211334E1,4.5148697E0,4.7235718E1,1.062845E2,5.1219383E1,3.1141148E1,8.22464E-1,0E0,0E0,4.103687E1,5.0151337E1,0E0,0E0,0E0,0E0,0E0,0E0,0E0,0E0,0E0,0E0,0E0,0E0],"parents":[2147483647,0,0,1,1,2,2,3,3,4,4,5,5,6,6,7,7,8,8,9,9,10,10,13,13,14,14],"right_children":[2,4,6,8,10,12,14,16,18,20,22,-1,-1,24,26,-1,-1,-1,-1,-1,-1,-1,-1,-1,-1,-1,-1],"split_conditions":[9.1E1,4E0,9.73E1,1.410574E10,2.4E1,